-2.703281072917183e-19,6.484864752559065e-18,2.5240616668177167e-16,2.700314115433853e-16,2.906555780817063e-16,2.885055991113274e-15,-4.6074255521944e-15,-0.13881851699277206,-0.1290512373865216,-0.16584359446468178,-0.07079425409789034,0.17620091812129182,0.2913327785048065,0.003666117822666109,0.08931042333917852,0.09832247946308979,0.14509153085081367,0.0924124565079152,-0.14936336312184878,-0.051078313422631076,-0.1014898233196679,0.15979620226512775,-0.039969781740206066,0.17582830325208887,0.10472923975269403,0.20531852173858708,0.39890625450920236,-0.18061898330235998,0.24766600619369739,0.20810429859874022
-8.802780701668141e-18,-2.483034175822898e-17,-5.80501959755054e-17,-1.7372889419496485e-17,-2.024778398722856e-16,-2.4393984466930817e-15,2.2343238370581275e-15,0.10799656150411686,0.012926456718039915,0.021981289668094896,-0.045564076616877246,0.0339442515997728,0.03132378090763687,0.01902828526383185,0.023386980903397463,-0.03806399179887958,-0.027018917815377234,0.0026957758251843367,-0.014544574457109395,0.013727286472683346,-0.0187101208445753,0.04213581086692632,-0.055742756511207664,0.03239476991235935,-0.05618563314135655,0.03022407078024069,-0.039415058899448706,0.003271241667087398,-0.023272278894507982,0.03693126034030648
-5.243055197240917e-18,-5.046096906363877e-17,1.538993353321005e-16,2.1488676868955036e-17,7.672924324415169e-17,8.678907724808153e-16,-9.159339953157541e-16,-0.039134134267231585,-0.021323306704180575,-0.017805272657394098,0.01247573848894322,0.06731728675734644,0.017212994147017588,0.021965599249652287,0.025091036637148182,0.027181912031006294,0.010653216097190986,-0.03310511220504354,0.0633265620771048,0.01123744068889651,0.005668247768163004,-0.020918745897672893,0.033972014388761615,0.014667956983088993,0.027921464511925582,-0.023662690390925646,-0.020293888941065482,0.031733155781207015,-0.03807612313492858,0.062225922810829594
3.258788348342035e-18,-5.775483342350616e-17,-4.103375822725517e-18,1.4478747705637833e-17,-9.254004104286457e-17,-2.63162481243476e-16,6.661338147750939e-16,0.017055633636038355,0.01351518714219434,-0.05088652801012007,-0.005923803042009718,-0.004914282399905662,0.003304792631243901,0.05173684958738787,-0.010461304682818733,0.0064174317117909295,0.012408101315434012,0.025704400491123002,0.021110782125363492,-0.04375787889296288,-0.02068299658669587,0.0004020495077517294,-0.017655507638281616,-0.10755863266171584,-0.014170165580514668,0.005965306199882297,0.007649507183713116,0.029109658703556834,0.03857667261283293,0.017804262252669827
1.6152369126170973e-18,-3.0984325699920497e-17,2.139531930884988e-17,1.8632670334088615e-17,-5.397653994697568e-17,-4.0107232855754457e-17,4.3021142204224816e-16,0.006833683947542436,0.011203019630055894,-0.028427794184433794,0.0052204330133927635,-0.008139728515331204,0.011862896330042866,0.01689612688281648,-0.016091294441518977,-0.019496050118183787,0.030271766190501186,0.028061415845843114,0.018873143923524783,-0.011291486184722789,-0.0031975736927133415,0.0012466295121861962,-0.0010061838835465507,-0.0959928616388955,-0.013274585673820935,-0.007376103205546089,0.0028890452519343716,0.013722397015045167,0.03979369507219541,0.006838306664767475
-1.3102871607463756e-17,2.943123015927908e-17,1.288326761841491e-16,4.956464459219664e-17,1.5871256162862272e-16,5.5794526295402415e-16,-1.8041124150158794e-15,-0.03318802172876564,-0.06377603680387413,0.04475629785396192,-0.009350432015502697,0.014226850729687077,-0.0023717108426066853,0.03211842724113407,-0.014137344600593597,-0.01289647635622957,0.03248626986437657,-0.04852282267849561,0.0662530427585344,0.02730057193576472,-0.040981547498955676,-0.008014819428241421,-0.07872767384708487,-0.009139133078325916,0.17188414808226773,-0.06675294064721465,-0.056270977235521547,-0.12701020805191063,-0.050361380555083,0.006101693296153539
-8.819910764866115e-18,-1.3009921137053764e-17,1.5920308607230935e-17,2.747434958997649e-18,-6.3874567107e-17,3.1414898824529544e-16,5.412337245047638e-16,-0.006638830429272204,0.0399568532069656,-0.01777536565490558,-0.038902975887237054,-0.011908781481941825,-0.0025513493490398127,0.07076776046959586,0.004810045081737396,0.00664784639796341,-0.05970142903477859,0.031383134547550304,-0.017613454648968952,-0.020037574399094635,-0.014583211480156602,0.0028080607603051208,0.05464253132250783,0.023331202005621728,-0.00042745708753516923,0.10135756044540783,-0.05612052508697836,0.03322690781406091,0.016273669042673845,-0.043267660086408366
6.458347453378488e-18,4.043943468560372e-18,-8.238000331542793e-18,1.2898217840341673e-17,-5.11740028122944e-17,7.246961738437824e-16,4.996003610813204e-16,-0.025160997062971542,0.06776573486829908,-0.019855554769405773,-0.06640724465780527,0.0035234884374267333,-0.0391872859089545,0.04576314153395404,0.011351996831725658,0.05477213331150292,-0.01335786360493927,0.01893036273629152,-0.03802576382120941,-0.06323057614363564,0.036984162487606866,0.018461871571923378,-0.0158830547347738,0.014315904379546178,0.03801748799313075,0.07286610157585176,-0.010861105614422112,-0.007091417132326552,0.02870775627338561,-0.03058812011878969
-1.2358175355157402e-17,-3.959235282272418e-17,1.728717886454133e-16,1.2986796197191548e-16,2.0678969426542728e-16,2.156148556715802e-15,-2.914335439641036e-15,-0.10038371201186573,-0.05066756248239909,-0.034542498025527196,-0.028864401995146536,-0.06028613925334547,0.028558184716622744,0.04870707262894767,0.043704537091192965,-0.051926632485551,0.02627709331045339,-0.019295188086591687,-0.02301195986948318,0.08941812528731012,0.034481996857333094,0.15384250861361176,-0.09855968515380725,-0.04327137166979727,0.12340798740227739,-0.09016890040550818,-0.019070415609363303,-0.022037363956594423,-0.036845285019606065,-0.03879756407694524
1.2404949258050365e-19,-6.645295593580886e-17,8.349693135482087e-18,1.7136753208299236e-17,-1.6161106145517344e-16,-4.625476884820179e-16,6.800116025829084e-16,0.02735582362503781,0.0014049430143564818,-0.08810839517370324,0.009397735231500698,0.056468256610883866,-0.008549521570119286,0.08822829955468758,-0.024405643529015798,0.03931610257395484,-0.009456300285039028,0.0066688620712295485,0.009524847217455982,-0.031065910316725794,-0.048132861961090116,-0.04911304362469944,-0.01704140013020462,-0.11854089770465773,0.02166296262537995,0.008839182547408094,0.023509133211463952,0.02813529503702481,0.08435438039060572,0.016526708977598226
-4.320355527647853e-18,-8.582396388736663e-17,4.5884021310421614e-17,-2.670015301830791e-17,-1.676686720622013e-16,-1.0757779404663192e-15,8.881784197001252e-16,0.05152585658941674,-0.014983833494136192,-0.0552538391055624,0.030506326363066254,0.0836164988718791,0.005665759505953774,0.07193447209931018,-0.029949232823493384,0.06087384562664904,-0.01205234636614105,-0.0027518592328646323,0.016966171849115943,-0.0075940708396664905,-0.0384222454783489,-0.05165051334668451,-0.0317742419667292,-0.13193547620561838,0.01813131411480641,-0.0020746293353218585,0.008158839442269233,0.026051320492625377,0.10289915752292367,-0.0018093766075377373
8.057823005503584e-18,1.9221413889758634e-17,-2.290644942038161e-18,4.386824681494261e-17,8.36676109340472e-17,1.1141355780585895e-15,-1.394717674685353e-15,-0.05398627559128917,-0.03356902073052166,-0.02027477214543091,0.0005848508793253209,-0.02313532495750736,-0.07425101179417576,-0.020440869682804032,-0.0053669630745553755,0.02616096950318477,-0.024068953272040738,0.05684313760123838,0.03481593277894301,-0.0024180242749557495,-0.0318067334068212,-0.009708132166775872,0.04212658494131345,-0.0026634429044777442,-0.0022467513802895125,0.008537554211083553,0.014129340376065034,0.006034670613784285,-0.025345248169079546,0.012162317332636362
-1.0194458622119531e-18,-1.5538441109557342e-17,-2.4685179095648526e-17,1.1110924616629624e-18,-1.0164134632804349e-16,-1.5876779165528015e-15,1.5855372570428017e-15,0.07379546715089778,0.005221928296346117,-0.008565488088450387,-0.02850207937771576,-0.0065823558060635196,0.0872619041671229,0.02069485831828841,0.008684591514691227,-0.048952698513308725,0.04168838383988148,-0.0037362519294993567,0.004087414247206439,-0.06844350258921701,-0.01700235160040939,0.03440267292332906,-0.02712105779912122,-0.04550546599885592,-0.05725732040328939,-0.04275574506286823,-0.007616162648067953,0.04842382227738162,-0.03373710030925447,-0.004884219398312625
8.576958641671657e-18,6.195523128182627e-17,-4.4813172315350074e-17,-2.209860300671589e-19,-6.871514934915483e-17,-1.276410840431364e-15,9.43689570931383e-16,0.05593394856054025,0.013214243871705458,0.1343447791187567,0.04394133570498849,0.09184750117369507,-0.05634778951500936,-0.13041633430529143,-0.04001314067673245,0.009910844039922925,-0.014291992307579646,-0.0699267384828521,-0.049018442672818054,0.07010864725238605,0.0751103190628674,-0.010270293514160117,-0.07638432999156017,-0.038709108327241164,-0.015569064530357586,-0.012450568791265439,-0.001139818339098009,-0.007112591093186553,0.05060007012313234,0.008799916631102153
-1.6667171956920597e-17,1.3617493832938062e-17,8.349609501348967e-17,9.892743731625059e-17,-5.667375092021594e-17,1.4973997716314313e-15,-7.216449660063518e-16,-0.062233065004780756,0.028556386355299467,-0.045734119894540695,-0.035067721323731156,0.011675804147364282,-0.028887504927228,-0.04261490758790841,-0.04173256977158095,-0.0007813781857956675,-0.021132716603664174,0.02199894230774267,-0.0026561420462448623,-0.08807363748167507,-0.04368851504831995,-0.027107049511402012,-0.04737513836339344,0.019752293053742646,-0.008303061015241486,0.02119353965388415,0.09850654798156236,0.06219437735589529,-0.01733968869588953,-0.045503663421251304
2.6787393880417883e-18,-6.632433039127536e-17,2.176061885143475e-17,2.969058647164233e-17,-1.5944030759205583e-16,-3.509676862073077e-16,1.1657341758564144e-15,0.025985436375068893,0.03296717813684062,-0.07957881314098511,0.0038706479743893696,0.026963821910208925,-0.007166763566291223,0.08047336773027607,0.031155087945662525,0.021291160266146313,0.008864270654439912,-0.010901257375051905,-0.0004444412611466773,-0.03989129252198468,-0.042280271117365834,-0.03453417421779344,-0.019717304152811053,-0.11952673586173258,0.034691944499891464,-0.002789380707178156,0.016504796503559942,0.042580620245590894,0.0713010012849019,0.02680585124509603
-3.870286274787699e-18,-8.239567439500234e-17,5.776459720556298e-17,9.580689649044096e-18,-1.6649051437363194e-16,-8.384870426591563e-16,1.4432899320127035e-15,0.046311065362066264,0.027937439627791504,-0.048980740917800476,0.020384556385073607,0.04180390069809846,0.005412839659792304,0.06429153583994507,0.042277938336290614,0.0346192385342726,0.011873537534886455,-0.023996198167907663,0.0030854679877646823,-0.022294109098484817,-0.03228471720000451,-0.032543756362029205,-0.033109998130720616,-0.13128947154173348,0.035387384770524256,-0.015466526267885684,0.0013461608471908443,0.04492159240136807,0.08346698828185126,0.014026107059767267
1.2088680579049338e-18,-5.442414691875204e-17,2.7532479374988134e-17,2.3670059282812725e-17,-1.4403741757555817e-16,-3.318103046293542e-16,1.0130785099704553e-15,0.02275046172442429,0.025944501321453522,-0.05772897833362132,0.02952680674426271,0.03548945944417453,0.014834102257768695,0.01379808927786355,0.045693656180854685,-0.003582900279337508,-0.0063035836905455805,-0.034781865820465004,0.017380454541563797,-0.03392671451083756,-0.016494755297434417,-0.024222897630597477,-0.0460408639367303,-0.1218149323486445,0.043739442918008534,-0.0015189864879058552,-0.046367943357419644,0.014153284261846439,0.06466280600201563,0.030725257811443207
3.4358490707675195e-18,-5.235328072111726e-17,1.3979768090484596e-17,4.071595029384803e-17,-1.5402141690233953e-16,-1.9790545906780004e-17,8.743006318923108e-16,0.01040415025837293,0.030422097126659546,-0.08117317901433745,0.01435319973729575,0.024495656053579607,0.0028287412666543133,0.036218398581973656,0.03597210416547416,-0.007541847888158623,-0.005460780920479805,-0.022106792530221655,0.011893256362463685,-0.04620939432238074,-0.027543840883006616,-0.027364304003557282,-0.03273213866695317,-0.11391352495391903,0.04165189179129857,0.006317303942886044,-0.02529013296244099,0.01783218193179512,0.05812776109513863,0.038145206753678045
1.7739142082981336e-19,-8.463540539613373e-17,2.7162132266257153e-17,2.489237745260425e-17,-1.7313776950803808e-16,-7.736299823600505e-16,1.2351231148954867e-15,0.044087071493092087,0.01767943453313049,-0.06376739618402,0.029912050340914056,0.05181103970000177,0.0032788718154367204,0.0698784507867496,0.02332371578162235,0.038049373496176486,0.008868788064660607,-0.022274684013135856,-0.0006195613175942629,-0.019036442322398418,-0.0278178720167054,-0.05273329822126222,-0.041533223111672624,-0.14673498791288994,0.036834289447757795,-0.015227568070427674,-0.00563712306667845,0.04498800596213413,0.0973197266581908,0.017611793111734185
3.497359646715006e-18,-9.244974963758469e-17,1.8594404594533395e-17,2.98103003904464e-17,-1.6918232927317097e-16,-2.4303831774380457e-16,9.575673587391975e-16,0.021776736858426456,0.02590239378905181,-0.0944935625341195,0.00895202957561285,0.03261416514078112,-0.010339688550634477,0.0866862837531765,0.015549067000778833,0.022197750314534224,0.006234550010102398,-0.007973255653749203,-0.0036644521980461215,-0.03964769030832876,-0.040179582032591844,-0.04992513202833627,-0.024360636001047917,-0.12964053097050374,0.03569019365315577,-0.0010255213420165988,0.013162162173940164,0.04233780993162628,0.080169808466972,0.03109258421257965
1.0394109864210204e-17,1.6363445448296986e-17,9.171240827063998e-18,1.0021072930988093e-16,-1.3126640896796452e-17,1.3071023367694336e-15,-1.1921887088650607e-15,-0.05778498716291819,-0.016400135772300605,-0.07130684929428183,0.04399100406824723,0.012760041388657708,-0.0360526553874932,-0.040213022143809445,0.005077481731990335,-0.021472262919396096,-0.0019355389932653078,0.03811901730870693,0.05279302145654898,0.025196871017446932,-0.03476501782377266,0.004743755180635283,0.027458541311211317,0.006149463020142668,-0.013077877365975913,0.021821187461746452,-0.011860753742070969,0.044248931425241625,-0.011816991412174866,0.02425365997716925
-1.3281616268725206e-17,-6.505878442753445e-17,-1.8748906678108542e-17,-4.7262117273547213e-17,-7.919762889137153e-17,-4.93379655383133e-16,7.91033905045424e-16,0.027637282977024683,0.011474740631768069,-0.03501248142930779,0.023996494150114407,-0.025241525335799108,-0.06700057136145698,0.053745433053864165,0.04680887601366968,0.046306124313005535,-0.00959334369415376,-0.009121925029721678,0.041297555227834785,-0.002626103965188103,-9.042114090027156e-05,0.016626728796447915,-0.021995245029339975,-0.07844219315828813,0.0018122254783557799,0.03300416237770719,-0.05605652916054114,0.003363103358064569,0.026835387739738953,0.07128248837674173
-5.158282252163763e-18,-6.342944786729173e-17,-1.7808672720730087e-17,-1.3631311637314228e-17,-9.343352042602803e-17,-1.2079314641678468e-16,6.522560269672795e-16,0.013078978201077198,0.019294047928048855,-0.06534439910984101,0.008411588825185883,-0.025188510063906374,-0.06383953740634606,0.07041830400958753,0.03589212469146447,0.03197347987132028,-0.00800830970129029,-0.00031133360422274666,0.03047821595972041,-0.02239717304711832,-0.015525281618611025,0.005001254614978158,-0.012164774841063299,-0.07842519118877575,0.00790136423550819,0.03471945546513322,-0.03093322053650868,0.0095679309821226,0.02721232172966204,0.07133298622605286
4.827253234017055e-18,3.424637776911557e-17,-6.256042300853317e-17,-2.440155389907257e-17,-1.7299891510275732e-17,-5.182602661026751e-16,-5.412337245047638e-16,0.008305117634118215,-0.04376746757627775,0.025109660401421728,0.03117261694307957,0.011503204852766066,0.07342388151402637,0.04954065945579591,-0.07296401609790708,-0.0012152201963288342,-0.050212626903122386,0.01791692956457141,0.0010573288169348934,0.0377954554397188,-1.989079896419347e-07,-0.04369489908393923,-0.03034421414070173,0.04368922592408879,0.06766411891239157,0.07431416479968662,-0.017085185009010743,0.01727364740332597,-0.00038026050352845986,0.023369138360001738
5.417057384891847e-18,-7.814066005554335e-17,-4.1784342530147397e-17,-3.555114496296727e-17,-1.7520587715102565e-16,-2.6832784837926704e-15,8.98586760555986e-16,0.11415010389251554,-0.07241792105911797,-0.004963116346165535,0.050735971016718395,-0.04798151569367741,0.08816720853703293,0.06000573013052496,-0.1881299247654546,-0.07392492598883263,0.12955021896599908,0.06681628410023199,0.047314382212914924,0.10900063326858463,0.032571902616915706,-0.019395414623768238,-0.1338367649088375,0.012648790556555954,-0.06867559704494443,-6.923078855424284e-05,-0.008607532529126317,0.033191396956353814,0.011305418817118468,0.04504333803144891
2.177535740541098e-17,1.0580546444985736e-16,7.504840707452974e-17,9.804758888499846e-17,2.043492307718722e-16,5.918810630233395e-16,-1.942890293094024e-15,-0.04585554748703196,-0.06797093951082976,0.09771175763495304,0.025920444623762067,-0.024274401719851114,-0.020088346367670918,-0.19147409567992213,-0.044362790368573095,0.0032802484338655263,-0.07991299581033795,-0.11189282275176692,0.00017715637753385572,-0.08155899443515671,-0.006562093213358612,0.05097874584636027,0.026786203316719766,-0.08213740839276719,0.029042810780518433,0.10280447550957512,-0.09236457218394224,-0.010582399416070469,-0.046173476221482934,0.044554804788432906
-1.0713601314983181e-17,-8.694707145037325e-19,1.5321253473016698e-17,4.08954063731145e-18,-4.014623586834936e-17,4.0132365251949405e-16,2.463307335887066e-16,-0.011588249442525452,0.02289668657219919,-0.035090512380613136,-0.06297491752614788,0.02200436266358053,0.042318329373410866,-0.010572044010493916,0.016934657727825445,-0.07675200435586839,0.00301108025405626,-0.06433998515895001,-0.026685839552509243,-0.001760836788022685,-0.002720191817254628,0.028832239511743688,-0.00042327321892439115,0.015048038583271552,0.010819949447224498,0.008652142594525663,-0.044306852230782,-0.00713240740521309,-0.037437863693386586,-0.04760169292717181
5.683861137097936e-18,1.595798932497867e-17,-3.793422205933034e-17,2.1590790057494586e-17,-4.846519724651045e-17,-1.2164619619484063e-15,4.0939474033052647e-16,0.04786039518825886,-0.025967224846733163,0.0418149174563844,0.030835015340501593,-0.012215412980998305,-0.015482307425907888,0.012794887677032818,-0.037865227811180215,-0.031029298997828466,0.01799273604197598,0.08056869844263044,0.007365571399180202,0.022868672113617827,-0.016094442156199172,0.011535286283062612,-0.054489334235948796,0.012462934788564386,0.05159279123318602,0.04881952585829833,0.037654868304671164,0.014126394566258702,-0.012675972273621244,0.032927924646743316
-1.1024369878103055e-17,-2.3006059878536348e-17,-1.7198282597972373e-17,-2.4003543086977618e-17,-8.972115683754002e-17,-3.7384577829384337e-16,8.916478666520788e-16,0.02072308175220248,0.033235705937910996,-0.015549607232949967,-0.05081060696668869,0.006903664237840509,-0.04062848064863573,0.03700670619670467,0.002543959131994016,0.04570778364862459,-0.01262589035561755,0.007032623458985207,0.004650682277581206,-0.04179219297289657,-0.007404147768406297,0.022075386348959215,0.004006972744977989,0.0405889753177628,0.0047636221818899045,0.05844446627540902,-0.020539367642572262,0.01534355848007872,-0.00788669542712605,-0.027243926525475044
-3.365158452869989e-18,-5.881015281537494e-17,-2.830250178472843e-17,-4.7807210367777624e-18,-2.291809310219451e-16,-1.3536181302277722e-15,2.671474153004283e-15,0.07643737608448596,0.08056767894526147,-0.012304654397283421,-0.027500964113323423,0.007891039287206124,-0.06569906857938608,0.01184597020453186,0.03159564349552039,0.02592579841366202,0.02472060469043221,0.007537871190676675,-0.016950529075424003,-0.011824011418448768,-0.010185197824423968,-0.03791586081759496,-0.02869695522938034,0.024615063380365194,0.020815035955465154,-0.0012641296360344269,0.01242149725522027,0.00250074139718549,-0.002199866827427731,-0.02143015013694214
-5.075270195843259e-18,-5.568061640233706e-17,-2.42726886634763e-17,-7.965658462436085e-18,-2.2176921025928157e-16,-1.3111486389454536e-15,2.5266247427602195e-15,0.07222467768447136,0.07630929073960505,-0.011024414462011073,-0.028334482923980293,0.005998496287176556,-0.06110005383060502,0.013327701882140254,0.03413026243130729,0.026910275345786102,0.017172462037833607,-0.002759923226620082,-0.010963896749746866,-0.008756544914402364,-0.013681610608779596,-0.03047028698980398,-0.0248268522077139,0.020980139247293746,0.014113816263118546,-0.0009758380577101483,0.004854786790981883,-0.0003286725736531303,-0.008878990854665356,-0.007002435313996745
-5.989370264295898e-18,-5.693619536541717e-17,-3.888008336414645e-17,-7.469621900948096e-18,-2.346187469662363e-16,-1.3730863386620143e-15,2.5357320410090978e-15,0.07524202503445347,0.07318505304703114,-0.020702977175255825,-0.03209967672219284,0.001298490442360964,-0.0565458594118275,0.006469230163169294,0.025540370797375266,0.030925073271759123,0.0045301157490291325,-0.0012188352172646563,-0.014799674680163015,-0.009496153609384134,-0.013074089643445246,-0.022299014675479453,-0.01416023583200391,0.022928793855011842,0.011119223480363318,0.0007638306563745428,0.00742446229537122,0.0042597695220668915,-0.009904099066642205,-0.015349185231621288
7.755036907439985e-18,3.2295572239557484e-17,2.2474460351666802e-17,7.391266247617528e-17,2.7498395492089013e-16,2.2345153352734846e-15,-2.8449465006019636e-15,-0.1130126157278357,-0.04974877654873761,0.010418791905899063,0.040704812579838184,-0.10244777551347889,0.035292088637999514,0.02581161732542938,-0.06862342834658718,-0.019738350947116443,0.050437668982237685,0.04549201049535196,-0.04278431129350421,0.002395256937401899,0.10871973965777489,-0.06490688693154482,0.04405817920368982,-0.0069337814478984735,-0.0027013922758733666,0.008114154080395921,0.036146721406730094,-0.033408344362259264,-0.0571062387741259,0.0005677353272367102
5.807241346181605e-18,5.718473991861274e-17,-9.717436756998657e-17,1.745893060780575e-17,-9.768505521360662e-17,-1.035832230089293e-15,1.3817072486155269e-15,0.04843450604601463,0.03544148447917306,0.04919477031239089,0.002897330748932047,0.04267502270061116,0.054385468725654564,-0.01326984575108776,-0.010052125361798952,-0.059944802331373115,0.008412009027925032,-0.020268608308131816,-0.008551381266213763,0.03973360622078887,0.031538769430333506,-0.05013037586739823,-0.0050240622805249715,0.02711793455700934,0.029177757100015873,-0.04696792769937459,0.015896469375342337,0.02803394355413471,-0.02836643551018293,0.028753184085628408
-4.785556534392654e-17,-2.005907306422263e-17,8.345735378009277e-19,1.0347188521543155e-16,3.568873637317869e-18,1.1141142714987607e-15,-3.2656169435263394e-15,-0.07376011778601575,-0.12645008706550329,-0.18340754436415316,0.258071212979395,0.04050057553405655,0.055656089285097396,0.18405525323254512,0.26793989628431025,0.23783795369802835,-0.18289024223071101,-0.11171371834684177,-0.13751665899630194,0.1481000539866406,-0.22653806227332335,-0.038014807370481726,0.0026345985045670554,0.08269427364251408,-0.2733116042403531,-0.18173624202338368,-0.09210692580881594,-0.08259526520691858,-0.20610195757497976,-0.005626913925768482
5.22669654787842e-18,-8.08538169376992e-18,6.7208932102402995e-18,2.9230395414972254e-17,-7.735551639437298e-17,-2.9381693607087776e-16,-3.469446951953614e-17,0.017392537559873345,-0.02608794396381136,-0.08940585226805174,0.08692215304338421,-0.0026711593149344724,0.054231785939131846,0.037601848297071284,0.044702796439152884,0.11837295208354186,-0.0013270735090852202,0.054202236003963226,-0.021379612857455467,0.005326757498776674,-0.0928202766414383,0.020426185875188393,0.05597993794496438,0.012610396732413216,-0.09523495025539067,-0.10866334940552255,0.014244511723296712,0.03507141911721273,-0.061646257813507514,-0.013722118173283126
-1.7234593609754155e-17,2.1746003331747132e-17,3.0740656419643016e-17,-8.363045379410857e-18,4.727134707436547e-17,7.048222195030069e-16,-5.134781488891349e-16,-0.038456337000273164,0.013500569750677621,0.006194559195335508,-0.016799030690099883,-0.023504075798784937,-0.0037700559262323886,0.0020297394382910935,0.017720196085741307,0.03955724929995877,0.020586259286202255,-0.04058908774351182,0.055220146460391244,0.06441449983197758,-0.00861023369595027,0.10659749108381047,0.039383957461886214,-0.03566924798063345,-0.05922081854507242,0.00750174818421224,-0.048774593549079814,0.0009872148514516968,0.02678925835000706,0.03517885140393803
5.971154089149633e-18,-9.912695019290733e-17,-2.16995694941353e-17,1.1956005183538745e-16,-5.653308511745458e-16,-4.083950845965977e-15,4.496403249731884e-15,0.20676871038850775,0.053266859722820324,-0.11077184643927675,-0.0047586770769708995,0.05766537873390962,-0.01481859064793967,-0.09324804733081132,0.022121496694901915,0.09495696249187568,-0.024982909912377383,0.0014769992839756539,-0.15360908263441073,-0.017929773867811832,-0.016682359222796685,0.0931534067953053,-0.005244884126242505,-0.023802922742064574,0.1473285259661772,-0.05851971111934012,0.012571373371139012,0.047098700497072495,-0.06782678310721153,0.02162111039621338
1.404198965754298e-17,1.9054120751743715e-17,1.9149035842659822e-17,4.218208233270758e-17,-7.565670935571206e-17,-1.0600934155417948e-17,8.187894806610529e-16,0.007391059800175936,0.05494079698848116,0.01867532963688713,-0.06544980531915173,0.09261968183363592,-0.02157660073434547,-0.05282774665721986,-0.029608611712362645,-0.04046432980483918,0.0031448151691520925,-0.05319626680078079,-0.09546769063766239,0.026242291242689855,-0.004467951815455829,0.018384109584020713,-0.0610158640200718,-0.06960039657901369,-0.04559813863968607,-0.032230343730133115,-0.04174661957419743,-0.06292780227279454,0.12015239341212622,0.03423969666807571
3.837899871585612e-18,-3.265665233195729e-17,-7.536317728404263e-17,-4.32071573911036e-17,-6.838528144644058e-17,-1.4788677124842491e-15,5.655198531684391e-16,0.05855348799525641,-0.0368334960568025,-0.02541531248160407,0.07460306947562921,-0.05539005741848369,0.020382460623137102,-0.0091252884450223,0.05102270403795028,-0.006630906487119311,0.020030783814555392,0.01328336125133116,0.03501153468476552,0.03669235151622957,0.012256550331159582,0.0347821202415814,-0.035255742427287975,0.03840591806975806,0.0105302171333965,-0.011376565584295251,-0.017379353165214034,-0.04189347894179155,0.012962428828673,0.06300287148204974
1.209475750605256e-17,-3.934248802182326e-17,-5.588458372319069e-17,-3.5112460809909384e-17,-1.4869588377426345e-16,-2.2067104984263967e-15,2.2967738821932926e-15,0.10169737604972957,0.018338682000620728,-0.004996671051190742,-0.018180831578844172,-0.026376720857779628,0.01480286610771055,0.011622623856673587,0.054611696524050325,-0.027380622292359238,-0.028730953313330573,0.025913364008526424,0.03750883178743592,-0.08067147942149223,-0.012530296258833486,0.03289126983181837,-0.00012015501387053062,-0.0307827521660959,-0.04685753680333477,-0.015818262047984265,0.02696825392052145,0.020225552082269397,-0.04404591196984427,0.034368755386577396
1.5990893264879748e-18,-2.81788449205499e-17,-8.065048806233266e-17,-2.5444144602135746e-17,-1.2853098284291977e-16,-1.8256149093905766e-15,1.1934897514720433e-15,0.0770928362334571,-0.011918221169395594,-0.018022001898561787,0.05951949129864875,-0.0835746250554299,0.04027523880816941,0.019493406960529102,0.03335489664609276,0.0032914209782849255,0.008092999795220306,0.00444550132499854,0.0077411392358168254,0.02596539046000594,0.020598377951231123,0.03819539251779892,-0.020176188795199824,0.03347188141289124,0.034939355926792946,-0.026769558534065447,-0.010780118958226425,-0.06901213310565002,0.014879105102764738,0.05248482944418027
1.1755023440136724e-17,-1.0795446805970674e-17,-8.73485289535826e-17,-5.1806743694452235e-17,-7.977961302644107e-17,-2.1891142594994948e-15,1.7694179454963432e-15,0.09613342580295615,-0.0017834334226211376,0.012835308359500081,0.034984675682477095,-0.08249443806894147,0.05004634583162518,0.019334385806863683,0.04287955115562537,-0.031734196535081326,0.01764061655115928,-0.006022682838463844,0.005782338051647514,-0.028711693694152485,0.03309479835584539,-0.021726171024867024,0.031385088824214064,0.031047695462413243,0.04456627805984141,-0.04467076322574697,0.01577237378964937,-0.03330089596866632,0.04473976664761651,0.03402714458963687
9.455446559492345e-18,-4.458588288519496e-17,-1.2281831156707027e-16,-1.051568285334374e-16,-1.3473713446104926e-16,-3.2308336114317224e-15,2.095545958979983e-15,0.13845435419536084,-0.03538779691224626,-0.011323649106095197,0.07333650987886724,-0.0767837480292479,0.08004495884164958,0.03252955952776479,0.05249544173126231,-0.03087299577656535,0.016212714904533777,-0.005510856297384927,0.014074097246658233,-0.05331492123325403,0.04485433086021796,0.0031408480550896203,0.00873718691401476,0.042763068542561754,0.035788945930808676,-0.029887656676640027,-0.006798103637207337,-0.016693211504950383,0.03184225924745255,0.03697137224738153
7.669308278003509e-18,-4.0821099650196206e-17,-1.1377691484203993e-16,-1.157591305699771e-16,-9.206676527057e-17,-3.2928654827526657e-15,2.0539125955565396e-15,0.13795187772959322,-0.038095662165456595,0.008500114584164714,0.07747954674020446,-0.08529474976657932,0.06123664112380359,0.027447733439650235,0.08272974411732356,-0.02168711104662206,0.008800625909033067,-0.03045348095723202,0.00964125732604689,-0.06515321855710407,0.04093982123261342,-0.0032732000069162367,0.017038975067322538,0.040113919766620605,0.04362996025929225,-0.042884702288432844,-0.011101377217494945,-0.03981360135972003,0.03846366973274765,0.02163107724950512
1.0576506915893695e-17,-3.774962592850849e-17,-1.305385196597164e-16,-1.0530738155367265e-16,-1.3323742166106387e-16,-2.7440562436438516e-15,1.817990202823694e-15,0.11783923743335076,-0.02536107468227552,-0.02006672625092158,0.07420393230127016,-0.05886728366251995,0.05386462214043146,0.01768038088816774,0.04011748172621225,0.01730970686958009,-0.004956170711891583,-0.0486810056571342,0.00488654988088144,-0.035650688541163406,0.047463027561463145,-0.012219624831651866,0.014308404151938155,0.010966232120554663,0.02783859126159058,-0.005504957397514723,-0.0015045919020041905,-0.025694002804811707,0.053049239031463864,0.028481229620790523
9.696257258931184e-18,-4.998467133776434e-17,-1.1035574057225686e-16,-9.487349842066828e-17,-8.095201481921693e-17,-2.6281842897973034e-15,1.2663481374630692e-15,0.10730224949400226,-0.05003126939825396,-0.006221418478946306,0.05737773924452716,-0.04993581296340333,0.032854895298755356,0.03795654890206894,0.046728883400014666,-0.01625510291171375,-0.0014462925884346255,-0.016528734014606295,-0.01968468426920845,-0.033015296135809474,0.04645060600170011,-0.010090660021098678,0.02159766773715557,0.026681308893448788,0.025434179109188444,-0.03063544964917072,-0.0023663116781233325,-0.021076245535707343,0.03785298842738869,0.04278292241699742
8.97859053582668e-18,-2.734151653821922e-17,-1.1665275926322825e-16,-1.0788433763109256e-16,-1.0412515064223591e-16,-2.453601265074751e-15,1.7139067942650854e-15,0.10493647612633285,-0.021395005212127057,-0.00859469781971719,0.053871827497057316,-0.05777277187949574,0.04161290317370394,0.01021618820560597,0.0652820511128986,-0.0022723717308194597,0.012682179757495514,-0.021585277341442544,0.012975910525605878,-0.037952698976921294,0.0439510542977384,-0.014316254092476315,0.018434446852326234,0.021086713987251326,0.02265904905327989,-0.01944413110354478,-0.011943190696888461,-0.02883888090067031,0.03972509761893383,0.013779001665457244
1.052774236942417e-17,-2.5480642430437067e-17,-9.784094692663986e-17,-1.0061871282144855e-16,-9.957504389152036e-17,-2.408477537589491e-15,1.6583956430338276e-15,0.103240291093972,-0.0171725008460767,0.0031901221403066215,0.07125559206946283,-0.06898974208084227,0.03382549264488143,0.02419716590070917,0.05496725681831812,-0.0011074056533911193,0.006150399928377665,-0.01206298941931862,0.025071249627138695,-0.03489276549725249,0.031874169759266206,0.0033122865186836687,0.016431197660117827,0.03742466820052429,0.033501221394001614,-0.03339752163791198,-0.018239001268734827,-0.03501037777202951,0.04581171555742932,0.02851846476571515
7.781123687212738e-18,-2.512955668595397e-17,-1.0960144116077284e-16,-1.2649449169055334e-16,-7.684445243142454e-17,-3.0571752788521176e-15,1.970645868709653e-15,0.12614533458801946,-0.0213372269285929,0.04666917896024186,0.08391824376129836,-0.06337493744957413,0.045462025752399216,0.03491076495422576,0.06167178449591498,0.01102578325055408,0.003376723783901114,0.0025665328689305415,0.03254343661658008,-0.032177740726702445,0.05396059711055204,0.008661711424599759,0.01953884049238334,0.03543754958244347,0.04276586276716946,-0.023036439152579427,-0.014447910804327078,-0.033153259470496625,0.049383211937216974,0.03359258792126733
7.440678852084319e-18,-3.8261801673211495e-17,-1.089494673825837e-16,-1.313784120310332e-16,-1.2749050726594449e-16,-3.2252841705390723e-15,2.123301534595612e-15,0.1379101584487766,-0.03239820840196761,-0.0015805580176003384,0.06461590109306473,-0.071266254400578,0.06014263618256623,0.05460981951064644,0.05237682457067181,0.0024368120572649016,0.0009906716783112115,-0.016884156084625485,0.02714288592452846,-0.03807468116575499,0.02478728168129667,-0.004962645833138168,0.01839462207433252,0.007687091463187713,0.034326872419634516,-0.012060196581938885,-0.007191258858702388,-0.006225110152143116,0.05348270739322336,0.018673420735511596
9.236776306152216e-18,-5.0325957261895947e-17,-9.965305276151567e-17,-1.2608499519736687e-16,-6.69895404476174e-17,-2.9419042277518063e-15,1.5959455978986625e-15,0.12261905030487272,-0.046679201397154965,0.0015567418858325785,0.059678486341481894,-0.06838293918361958,0.04532405969238262,0.05256911808950817,0.06421967308641986,-0.0021181205130208396,0.007182387661629637,-0.034341980212630234,-0.008694933669268158,-0.035531944733337616,0.05598769209349907,0.00011119975603159774,0.028249493734668445,0.007868627898727222,0.028762323084987003,0.0031521164908956934,-0.01105698301075684,-0.00922286890928106,0.06075781469207249,0.008147388284586532
-5.648496418509588e-18,-2.0676043135590696e-17,-1.7667005663540242e-17,-8.227471169197246e-17,4.360119945171469e-18,-1.958626941732803e-15,1.4849232954361469e-15,0.08529164384157382,-0.0025367146747615706,0.0486438627335731,0.027614406879805143,-0.05133806014658907,0.0695761342682468,0.014173987208700469,0.03418010250547616,0.03366330739608993,-0.005239200137028128,-0.010715860503135948,0.0029381798992033064,-0.051281349861598456,0.01834022533332484,0.01727632658815877,0.048213546417488345,-0.017716131542666744,-0.018876955511876566,-0.034993123390713386,0.009848796891452547,0.014770136431692685,0.016229350809691255,-0.036541594725913035
-1.6797184736405913e-18,-4.970880605929017e-18,-1.7440492111443918e-17,-7.268851377708105e-17,3.862789288915153e-18,-1.7686948267445847e-15,1.4016565685892601e-15,0.07746376472408897,0.00434970365178809,0.059131555082893576,0.024190505714848966,-0.0238644597003725,0.05575190042297929,-0.002956655034112989,0.049399050372286625,0.026033917403168242,-0.01580639075682822,-0.001007039170783454,-0.00366240092644934,-0.025177670294996263,0.026935455131099212,0.019706640329482064,0.02533194403582743,-0.025005425169360985,-0.023890763941393126,-0.005690876269895605,0.001594107314376266,0.010093743162765283,0.025696445642649692,-0.007371536988112876
-4.5568497682424095e-18,-6.566989537957231e-18,-4.6223218051693414e-17,-9.585693331369913e-17,1.574938564327884e-17,-2.136523083676787e-15,1.6514567491299204e-15,0.08950077271033938,0.005714500053003521,0.08749596957312508,0.03905233450688221,-0.03637794853516959,0.05548972560638286,0.023177852833023323,0.047339038979082086,0.02618821630135437,-0.00992838541440643,0.003958881793273262,0.017134711174086586,-0.02668728753172434,0.04531730340424944,0.022577771760054138,0.04019039155809255,-0.004127425231606329,0.004088873592125331,-0.006022070205905988,0.0048246350977251265,0.004978653127165433,0.03132774185611294,-5.552688735064901e-05
2.537587687978662e-18,-9.694750180985955e-18,-2.8010743060623095e-17,-8.96734142053345e-17,-1.1464790769487042e-17,-2.011972417934194e-15,1.6514567491299204e-15,0.08909575035303126,0.0038751365225619203,0.056319241597952104,0.008220454842546092,-0.03538103899798013,0.07171058127475549,0.037387133454236984,0.03467374949261673,0.02300687347355937,-0.016067369378390504,-0.013129036352462166,0.007651600112526277,-0.030347402397251894,0.016468337126669175,0.014490667043705156,0.04535606102584526,-0.04097232774667937,-0.015109312124469745,0.008960861528255652,0.01713738782201405,0.04065356264018796,0.029600646078111564,-0.023577211520375074
1.1591435356955701e-17,1.6673003861691897e-17,-4.6349110501079563e-17,-6.419190531304573e-17,-3.1245575883554484e-17,-1.6393456955364225e-15,1.366962099069724e-15,0.07343697418289892,0.004836852225223508,0.04442041353554063,0.018690511847800764,-0.01738846047311238,-0.003379237356188816,-0.03695209719235925,0.02537191875638871,0.05625607629988696,-0.003691461836538022,-0.022007014277240843,-0.009256358347340786,-0.02712242975760035,0.000378445798844083,0.006950269925586332,0.029352501333079387,0.01012278263393123,-0.05352367529860714,-0.06610772587810483,0.019392583084127765,0.0044642952885335044,0.034365945944200074,-0.002544027463831813
6.760227704665494e-18,-1.616711483062757e-17,-2.888779342205806e-17,-4.8329071114386406e-17,-9.704937148795268e-18,-9.522368200168487e-16,1.061650767297806e-15,0.04475509705782338,0.014214293027071624,0.012381981304477152,0.007822455468536424,-0.019221533069514265,0.012297222158862135,-0.005373601433306977,0.054144251526985224,0.021356481292083687,0.011995167189804713,-0.020700758153033995,-0.02041644624282055,-0.03471349211932204,0.012101449618878875,-0.011244957308115042,0.028310457006844068,0.012272770985848964,-0.029839717142850296,-0.06912827005316437,0.027507377890173,-0.0005391537980392767,0.038194616426840446,0.0138274160587532
-6.818968383190808e-18,-6.738579298941544e-19,-4.2230685987891157e-17,-9.317943503975146e-17,-1.0340069647639695e-17,-1.888880343764053e-15,1.5543122344752192e-15,0.07947602065479782,0.013262938051803069,0.07064596486424299,0.036609115149995444,-0.02858690615496501,0.048411070500735676,0.021653852713389352,0.040787646885675696,0.021851285379822703,-0.02289949551331342,-0.013684304022596256,0.01892780888936995,-0.022277788821515335,0.0391142648179402,0.02218361179162484,0.040977074861004596,-0.008931018887133631,0.0048712151704482015,-0.014362616942861376,-0.008111480878406905,-0.01188690381330798,0.03728664988322589,0.00012222822448420252
5.872310410221089e-18,-1.581082054936469e-17,-1.1050915507897837e-16,-1.485328891358042e-16,-5.766334266859506e-17,-3.147137487552058e-15,1.9845236565174673e-15,0.1289574474602988,-0.022110244756672847,0.0623615421824457,0.0629162377575456,-0.05935410705320849,0.054626454885959734,0.03484183323226789,0.06351747546219645,0.0101456795966261,-0.0015532569469779937,0.0014303887161653266,0.030116953296663296,-0.027019762011561213,0.04944993770923236,0.017324654828242844,0.015353507146464516,0.03477748624126702,0.04452015476829829,-0.02783779342981313,-0.015905903295815076,-0.033868876274238215,0.05258338260293666,0.029212546544395666
9.411392200887252e-18,2.2592956668640642e-17,-7.034491816051727e-17,-2.0541954536779036e-18,-1.523237011029799e-16,-1.4445878601742924e-15,1.304512053934559e-15,0.06682869566434091,-0.0037212931809265924,-0.04464987822502747,-0.041462736347681904,-0.04005328172588362,0.05860280362529365,-0.014839829549448902,-0.019546197968239403,-0.015035980122185134,-0.0098407666830584,0.05642549530868919,0.01312222774103523,-0.0709561810262798,-0.0028100693375830133,0.0030432425866593615,9.664451951731676e-05,-0.0043230648682813025,-0.013509809421736758,-0.031180127045819427,-0.008611216025474613,0.010353086759377444,-0.050161986359082096,0.03054452387205957
5.086923299870067e-18,1.682066811019306e-17,-4.4233815131378494e-17,-1.3872140258578326e-17,-1.1115741258218426e-16,-1.2826845445483643e-15,9.35015953551499e-16,0.05660264597859318,-0.016423457847159893,-0.036315484921625375,-0.04078197320988255,-0.04145761942085677,0.06967421625450015,-0.018947122141132287,-0.022566949822382824,-0.024944790387859333,-0.011003483630902087,0.02792080119628637,0.014944119352667111,-0.06011921852052895,-0.008923881507966863,0.008471446127835909,-0.017784550499187517,-0.021455801138155987,-0.03073858761855576,-0.01946543751447975,-0.027165620845280358,-0.0023171977860739516,-0.02816868411262851,0.03154417137077056
7.593979221447332e-18,1.7948489610493816e-17,-5.717670584869968e-17,-4.646055132592398e-18,-1.299199800301683e-16,-1.1685562433217648e-15,1.0061396160665481e-15,0.05372605179940045,-0.006194926236856066,-0.03983857677390232,-0.049542996497835064,-0.04321135588464813,0.07846412740715081,-0.006460232784105965,-0.024515837478325638,-0.015534728690067303,-0.007582040748277407,0.03191100645642559,-0.003297832007528655,-0.044090928728888715,-0.0020860010451882118,-0.00620269213892511,-0.01787150630476632,-0.0246712779518547,-0.01660590843903827,-0.03449800076759402,-0.0012134653176286885,-0.0009139132797953959,-0.044047847785295594,0.009305063015850957
1.19463638149839e-17,9.073715568054207e-18,-2.9419627525803725e-17,-1.7544373561256667e-17,-9.82598520306156e-17,-1.3976619024370321e-15,1.1518563880486e-15,0.06287001513899396,-0.0066150288917481495,0.005491560449773151,-0.024874879704295357,0.011330748864649158,0.04216119947923865,-0.018052945101730482,0.003231198560531475,-0.03320212132319433,-0.04165429459651384,0.011444111289890238,0.021494321749133894,-0.04364925903114686,-0.013239457127151934,-0.02391827509554798,-0.0392505566765023,-0.013922742460152952,-0.006576061479341748,-0.019216294541526263,-0.001332628493584953,0.025894990842059568,-0.025674288089842585,-0.013287077944230986
6.932674225994203e-19,3.029855386605137e-17,-5.0884259332025124e-17,3.6845809099235206e-17,-1.4247186592297104e-16,-6.84366631027558e-16,8.951173136040325e-16,0.032064591853324026,0.020776239163475808,-0.020806302614625675,-0.02964517418354704,-0.015170397302059586,0.05690523639000143,0.015386064466970849,-0.026982046624190202,-0.007292494055325486,-0.04948530086794399,0.014923824078212132,0.005836055430896712,-0.012591346969408739,-0.013000869330177557,0.02025137548223096,-0.02951470801815474,0.018689098276991823,-0.031099416683394655,-0.013135519556984459,-0.011720638318314313,0.012419732006000257,-0.06698420334894103,0.05445319869686851
3.0100425470489084e-18,1.696178147705532e-17,-8.855925929265177e-17,-2.791105715381725e-17,-1.037648830899072e-16,-2.4389381082359474e-15,1.3964523981613297e-15,0.09899852072558314,-0.025311952665920897,0.04685914905833451,0.06451698212758755,-0.010548678880915596,0.06421139081179654,0.0007627025403125214,0.028791566026520922,-0.025943119431653037,-0.015406781188768775,-0.0033631510208110772,0.03115713340438155,0.03044281393306691,-0.014365694587358889,0.007043075428973515,-0.012020708853507103,0.032672549297153956,0.0746019672574758,-0.016485410768748245,0.020139826601056024,-0.004469717990949149,0.014847154328675269,-0.013377353180118184
1.0303635556441778e-17,5.66077809615583e-17,-6.328965990381229e-17,1.9115864259336396e-17,-6.6386472604312e-17,-1.2556932481681491e-15,1.186550857568136e-15,0.05437921985508787,0.02225368935690198,0.06749351570434892,0.01434317678944933,0.005428492395819146,0.0018353040393366542,-0.014929149279303376,-0.021750499396269135,-0.021140723480535924,-0.010954163608215483,0.03394125671133998,0.010755246375581194,-0.01963416066529527,-0.005141955026389296,-0.027951947098824276,-0.03167035250641574,0.022945131668975542,0.03293996369731647,-0.0518699079683627,0.05796120127620246,-0.018773833903776436,0.0014070035581046191,0.03014944959225697
8.563531885243831e-18,2.6640070439145424e-17,-1.289260369642405e-16,-7.600697318906466e-17,-5.1567040044588054e-17,-1.5717811239086668e-15,1.3877787807814457e-15,0.06693627726210856,0.010716263944271616,0.04195353231336837,0.12319435295396967,0.01749296875224647,-0.00791872142232369,-0.00467267174305988,0.07311323981718877,0.023090984942258537,0.039172635300537925,-0.032392884597473574,0.06614782769631392,-0.015121323220885555,0.003371475222163212,-0.04614637431457648,0.01816621675789836,-0.04273122333966364,0.07071471040888455,-0.014057067795414607,0.006651625450973276,-0.0050006470134672885,0.04103178610928389,-0.03580128299325794
1.0566354180531235e-17,3.2229494440002054e-18,-6.024203418124718e-17,-2.583305622847705e-17,-1.0067026495746422e-16,-1.9958164119227794e-15,1.7321213907628419e-15,0.08715085964054381,0.011838264614188514,0.052192597604350674,0.011736990039161573,-0.049097118777754925,0.005305791707143169,-0.04198308911697976,-0.005753470835469289,0.018685454138507543,-0.01601770624350967,0.014808614814524472,0.011454200264249731,-0.03564520526825105,0.050878582498482136,0.008576985389706328,-0.010511099845435103,0.008604133780635181,-0.015817597034059567,-0.013772683929081668,0.04718578089126524,-0.013250880836331419,0.0003922409598401062,0.039275545426688555
1.64547177146758e-17,1.954040338769052e-18,-1.0314442718727308e-16,-2.4524349234964468e-17,-1.6236386470292766e-16,-2.100732616099195e-15,1.8904149079457255e-15,0.09286336689204848,0.006200639461907643,-0.0016106211437218474,-0.005787882874369743,-0.033350126120949994,-0.0014141421648153805,0.004439126034768995,0.007458187657856896,-0.03199196000985808,-0.005214627036790185,0.017635695390073935,0.05035400802627606,-0.03943965040807862,0.027911008961872687,-0.0108858607556627,-0.008395378193099644,0.009743010808398109,0.021175846842648536,-0.024759162290115933,0.034569163704213444,-0.030855231100433922,-0.005051132506291629,0.029685718046917827
-5.146022548598227e-18,-5.586514597157392e-17,-5.9488866978785154e-18,-2.0705185525730698e-17,-1.5804164430019942e-16,-2.3229506868430507e-15,2.4147350785597155e-15,0.11129024534309932,0.017102702318898443,-0.03388872842478627,0.00034023897558619725,0.001119806688660709,0.053115605718973204,0.05437179058286882,0.050781988094288875,-0.003666474494080769,0.03375401165462948,-0.016368926696227748,-0.0033625250277735433,-0.03885054158747125,-0.05726828138513363,-0.026057071547916935,0.058006566802059664,0.026287881306494947,-0.04625251240002811,-0.048507417592068426,0.019286060684209724,0.0225932133426581,-0.00013853433259691878,0.008694850156882554
1.1662052804924709e-18,1.0745006368303681e-17,-6.856880046244544e-17,-1.0026694107582228e-16,-1.0692760045739662e-17,-2.216781576444266e-15,1.7277845820728999e-15,0.0915549026177028,0.006691970429745059,0.08416567572884312,0.03530056738158581,0.00626405118870352,0.037988035010551174,0.05419030370181142,0.06047811924076315,0.0033094891772062194,0.014854289171616944,-0.006725729100634777,0.03991172630027427,0.0018501042069851785,0.0032958907839109332,-0.004699216788493271,0.047503492418230715,0.03945209923779599,0.00012296799698020323,-0.008735769737685185,-0.0017842473412108032,-0.000736740883774392,0.017968391811676594,0.035502959978498956
-6.814286687095698e-18,1.137531248015849e-17,-3.605715365391985e-17,-1.0427387683531472e-16,-2.07192556996756e-18,-2.049127397494161e-15,1.6653345369377348e-15,0.08898228571871933,0.0013805729029189267,0.05531071327176441,-0.028400009873936444,0.031217505127314773,0.08011347226972587,0.10135433353188514,0.05330317598140322,-0.028850266123292962,0.005835261207523456,-0.05708410234347491,0.059999305145258176,0.03372294179115615,-0.07795239587966867,-0.026870456554708207,0.05031908282572118,-0.013708534024862919,-0.027427366306680672,0.032490730132666144,0.011582065335341082,0.050988155737854556,0.016383775377250717,0.017703353775105336
8.013874732402382e-18,1.0476372864903618e-17,-3.1052431784254415e-17,-2.3207305788566272e-17,-8.47103081845425e-17,-2.068945048580431e-15,2.185751579730777e-15,0.09435728168787881,0.04086644409147991,0.10438513752620081,-0.006069986646127348,-0.02717333981284381,0.013057860910247668,-0.07552777480848903,-0.025895473050780996,0.022410611747052615,-0.034583999652424195,-0.006370765664359326,-0.031312778241134015,-0.015434479267322625,0.07215721406003135,-0.017771294287941684,-0.009445084152263142,0.011816521260819238,-0.03228516562094617,-0.027649725974647325,0.05560385895130281,0.01170178431948368,-0.007246724731326859,0.02940358072129835
-3.936630173319597e-18,-2.2317425232985276e-17,-5.3625566690114706e-17,-6.584079869818508e-17,-2.188759844207473e-17,-2.1748795214996968e-15,1.1093556628871681e-15,0.08700002915870823,-0.027516912162117883,0.03852216883522145,0.045416974024775,-0.10967502546558097,0.0605505337605828,0.027777986962096143,0.02649011656837361,-0.0050549172125464985,-0.013135628440881906,-0.006668442478184528,0.02227411608219125,-0.010759445026706789,0.038173913673307906,0.05959454685161356,0.011781470782334045,-0.012098944248625136,0.033611140699674066,0.021402161707886974,0.007860065580603776,-0.04325706627769514,0.009743005098333082,0.03696027287502658
1.2141174164308402e-17,-5.528416848264981e-17,-9.141872271487253e-18,-5.068378232684874e-17,-1.1057792613382881e-16,-1.0771940533983664e-15,1.4632392519864368e-15,0.05284867238343324,0.029046560309691133,-0.016790801234319135,-0.018780087962216228,-0.04089776664136271,-0.039038428637563426,0.019277124136836455,0.04956278761266899,0.013189216869788974,-0.06883741093234112,0.0002180369873622582,0.038502167056307844,-0.06604943542842034,-0.013240348525920168,0.04352173545582457,-0.010681758416578091,-0.05048459781051776,-0.026554984548054793,-0.007403963950228777,0.015598341860777864,-0.01833497849201716,0.01802570961053935,-0.016176756959339098
2.36028621464572e-17,-4.053409336827801e-17,-6.573821201783049e-17,-5.094283639023228e-17,-2.973570920362816e-16,-3.212655910486831e-15,3.1051550219984847e-15,0.15073899130395907,-0.003440882133928509,-0.06931889943892355,-0.004612127497951965,0.005227603365226956,0.08478423687386774,-0.10147070518213884,0.052675649386686334,-0.02170994724356869,-0.039902779949479716,-0.013538329634932084,0.06794250334849773,-0.12268765153442734,-0.015556250914160368,-0.028377520628461935,-0.033434509919648865,-0.099061070499534,-0.02557480530353617,-1.7029539648853543e-05,0.0077355660148310185,0.025307088974448774,0.002509321556757902,0.047966148146070996
1.6938981181809183e-17,-6.200026507310845e-17,-8.698437606004657e-17,7.966042273715552e-18,-2.855353187544155e-16,-2.6397902157006e-15,3.039235529911366e-15,0.12935127426284812,0.03803161198999006,-0.047715129892194126,0.015070101082696945,-0.032272893494534,0.03682355569924261,0.0216353339697684,0.022795330106267584,-0.007910844092886539,-0.025037791071866006,0.05285882680941724,0.019528368802465966,-0.08023869140058196,0.01943698405353444,-0.018382303328847893,0.0009540574195868177,0.0005002219168710858,-0.034481971210284644,-0.07965002103572513,0.04566042860783042,0.017205333357325735,-0.05003927422397337,0.01579730504180624
4.927553173125347e-18,-3.9876255232375937e-17,-6.290120859461025e-17,-6.807790390320843e-17,-4.472127565858867e-17,-1.4307772345298094e-15,4.666406150377611e-16,0.053444465132849305,-0.0370885809333773,-0.019692057251076315,0.04361727902345624,-0.09517295617358239,0.020044414790488217,0.031077683042431265,0.0450125900037352,0.012625392054930414,0.0049759188799516655,0.0021566224802751508,0.05276995027352445,-0.002350800925849966,0.014652153918430581,0.02787876433951739,-0.014501370338463701,0.03218148240338744,0.022961388052935707,-0.010617903917687221,0.00032263348062287566,-0.06347237089835121,0.0060135091354678065,0.03923596681584023
8.752673557139467e-18,-3.3796356456177024e-17,-8.358191107288644e-17,-6.575823182013987e-17,-2.544070504822407e-16,-2.4231108350050206e-15,3.957771610441085e-15,0.1253233651950283,0.10574375153243493,0.06857836995330721,-0.05370873326905169,0.03579926424479641,-0.07963753562045067,0.015002183469484018,0.04079466334947386,-0.02481029783634056,-0.08321823396547127,0.009135578742404084,0.04182740652761256,-0.08151318648943008,-0.002581357015329035,-0.03845971643206601,-0.04166797201451042,-0.053708165029794884,0.02954748761355167,0.04951819063751514,0.05467182176279433,0.06115747390460685,0.06118002300070177,-0.06347239515369782
1.845965528840905e-18,5.550872199344611e-17,7.32196751309389e-18,2.793277068083852e-17,8.14671085258282e-17,2.4370074850523624e-16,-3.885780586188048e-16,-0.016032976943084778,-0.007768404452166407,0.04105409012350191,-0.06711261781006203,0.011882622243647003,-0.016922571384716412,0.010602509903314544,0.0006485744006758488,-0.0008719951175845854,0.010242256108941231,0.001916627092809558,-0.05278799674473564,0.036819712649205256,-0.012456344877294157,-0.027058533469682365,0.016892871612076008,0.018537413306671826,0.0248664711213618,-0.03426959336503581,0.02040774007138302,-0.0084800178849071,0.05551041701368514,0.016233303813937217
-9.520605365475895e-18,-2.2896225331503568e-17,4.013537965607559e-17,-3.4802845454077605e-17,1.1748002413171816e-16,7.785917095419079e-16,-1.7338561142388187e-15,-0.04088053484562891,-0.0733083902278424,-0.046910141405535496,0.019822358578339656,-0.03559318056461782,-0.009271938939397083,-0.02133732308342327,-0.006255096787870617,0.016731752576487728,0.024248284769117216,-0.01484169830139635,0.011519144348602094,0.004845297354411086,-0.015787027804422808,-0.01335383890962096,0.00955632772127125,0.007794842835860663,0.011690408772371118,0.04119245128209273,-0.008549628701709746,-0.022886820602887492,-0.008052621278022424,-0.006956101799666262
-1.8446671904181217e-19,6.371744952096394e-17,5.362422845533186e-18,-9.084182407501854e-17,4.006473399955225e-16,4.356386468656368e-16,-3.0036736986538415e-15,-0.050356468228586374,-0.1376119828084504,0.07975348670147349,-0.0302473219839628,-0.008834256491362845,-0.034251478737274674,-0.03455884385902251,-0.006195769353530888,0.07875456916985521,-0.054809814149999074,-0.035947305547740005,-0.015809379355883158,-0.12243692996215363,-0.05736744655044541,0.03875749519339995,0.03527628627920751,0.00562582687939651,-0.02438353718736671,-0.04646016490536117,-0.06486132406879236,0.024338403970311985,0.050453307276899825,0.0024799555614557992
3.1660217637546355e-18,-1.0141342535990733e-17,5.324584004094657e-19,6.613946189127221e-18,1.1275911219321692e-16,1.5778678978939957e-15,-2.789435349370706e-15,-0.08011903892283403,-0.10516437537813002,-0.14297725515502388,0.03975477152211628,-0.03620220853507276,0.02217955429039205,0.007562312045725918,0.02233027989097127,-0.06663373659026645,-0.01746671791805682,-0.07665540048170146,-0.006831560720466966,0.001657084226547131,-0.022200181836572942,-0.06892503919612464,0.06544233698495712,0.06057311661749118,0.0472041461244593,0.06353190481574819,0.002257434644646074,-0.05145051005514092,0.017325869850337558,-0.017588571665884796
-8.290617613437366e-18,-3.5200650720031254e-22,-6.957716631238742e-17,-1.3373409429734967e-16,-1.1106695168893824e-16,-2.7491297953801053e-17,4.163336342344337e-17,0.006828812160973331,0.01032596080525956,-0.0470112674490203,0.07092583177310613,0.08962049490195363,0.01841606459399161,0.00619809267308778,-0.009399792756820782,-0.06458148192378164,-0.12784256913249542,0.022045102316694078,0.061720598339962136,0.09628153737387668,0.0007162419756992238,0.08489707436187757,-0.012616067816104276,-0.019124526033697013,0.06332281934475584,-0.06070150028262433,-0.045514608564655216,-0.019056241404449708,0.13254731271990794,-0.12685944433506216
2.003321992470643e-18,3.081537684320909e-17,2.7716393518763535e-18,-1.7032636779645828e-16,2.117617997316905e-16,1.3340078123631703e-15,-3.677613769070831e-15,-0.07425872520237882,-0.1511513552291653,-0.09006583014918546,0.014917953502452007,-0.035997864051278194,0.08412898481410551,-0.016088263919914216,-0.14010190055474583,-0.01160163676428525,-0.037451375920780954,-0.2249561239204002,0.06453694356690655,0.07635360673696356,0.006134719985150616,-0.04410255040156272,0.037802941649084446,-0.035124148245386566,0.03822514734989686,-0.01504610246634285,-0.03935678978029634,0.024209542392201133,0.08723453137763917,-0.03626935302305442
1.8770455931698345e-18,-1.7828958696513686e-16,3.6593132586508574e-16,5.93164592723859e-17,4.9432303728860525e-17,1.264234366372078e-16,-6.106226635438361e-16,0.01438133657889253,-0.09664989722300985,-0.1002824856761117,-0.06260581186023692,0.30873771885620255,0.0791985327533887,-0.06487817704040848,-0.0053335335174144625,0.12610397556431804,0.11795100316750116,-0.13853144702116482,0.15583103880985988,-0.09964098281462745,0.15695369088122976,-0.00840705388349598,0.12326452985775847,0.04651680282165065,0.12300829469955955,-0.13858376815831094,-0.013990663291018713,0.016574650354542936,-0.086110556226013,0.03988905746249892
-3.311511256759211e-18,-1.0701570121459715e-16,6.57576862804109e-18,-9.873787655993437e-17,-8.100032988769535e-17,-1.821365626330454e-15,1.4016565685892601e-15,0.08742140948542432,-0.03139755013283927,-0.029343749174670357,0.03511382414175129,-0.0011783692182362477,0.0075776049152934104,0.0476886523915307,0.02239926961680565,0.10741308613122309,0.026741658981304536,0.02648477208196597,0.09878129654019085,-0.06235280499285466,0.04522336524581759,0.012701447557032407,0.08335452949874908,-0.025382232229743826,0.012687127766551724,-0.017132718968946616,-0.014248661683989632,-0.001086498451723544,0.010985047838473127,-0.00518780999960549
-3.538569974464027e-18,-1.0824979483050622e-16,5.680296067245154e-17,-3.3264785489670676e-17,-4.779600737937201e-17,-9.92106784218425e-16,2.636779683484747e-16,0.047675425610336955,-0.05446040880898987,-0.055163162539008666,-0.010916318623029834,0.018161186505342895,-0.041741113987500716,0.02272023073071477,0.012483670550073747,0.06216937765270511,-0.0017468971787807039,0.009769969856107449,0.002153423401685247,-0.03345657530607268,0.015890680778024482,0.02169274333164643,0.03823348672559736,-0.021788802723946715,0.005148637104208052,-0.01455299355458639,-0.0009488014492799787,-0.006612618236425265,-0.02688353162350818,-0.01133655672612774
6.513470303472843e-18,1.1890403266256087e-16,4.040595150827084e-17,1.5654316315997005e-16,-5.887109150164092e-17,2.775202024158667e-15,-2.220446049250313e-15,-0.1220640680071516,-0.009001167961389065,-0.10740046935969304,0.06339733672612986,0.08913684142931574,-0.0005588474354960355,-0.1526194122975215,0.017237703400625966,-0.11353132225362614,-0.04019810989837096,-0.003257629918396705,0.08312555961824718,-0.019406528113877046,-0.01691453213424466,0.0066014249448917515,-0.052463144353867154,0.023016188808407827,-0.013796404691713275,0.06317509896380587,-0.05346580011268249,0.06748155663033381,-0.0277624674189261,0.02293738118928599
6.634107535730678e-18,8.430795700660823e-17,6.030946604851603e-18,1.1747725954217524e-16,-8.424740621390646e-17,1.6820928109018617e-15,-9.992007221626409e-16,-0.07152007533442419,0.010248051274826987,-0.06607795519375806,0.011890329887625516,0.06919083900233414,0.03748203512351306,-0.08459991186566088,0.011548292505347104,-0.10379655877998085,-0.019886991738964445,0.01519125166050794,0.05514841390821364,-0.04261711976193367,-0.025719034994672617,-0.005505827146977602,-0.01893686104031042,8.912561959138418e-05,0.02104666349633654,0.0022699010958715862,-0.028159416344762447,0.016794554661405153,-0.040734530450728015,0.01290163686952318
8.080555306378507e-18,6.512057528961969e-17,2.5653227686256746e-17,1.0261586234691714e-16,-2.930913659386883e-17,1.366440740597128e-15,-1.2906342661267445e-15,-0.05981204513768407,-0.017790686384280673,-0.06844973665637942,0.036683546428267454,0.008507787968054318,-0.01748301893482672,-0.07402326048759884,0.001432759946602054,-0.07454473262521023,-0.025870033609360504,0.047581720854561915,0.05280460334869471,0.0026123988783532943,-0.03263263517215245,-0.005622304447819235,0.005012009447624041,0.000674515430398864,0.04172083123502339,0.006649564428622637,0.00069789725735718,-0.008862460459762673,0.0007562546247980814,0.01675131653041172
3.7814907676268e-18,-8.164883200184683e-18,9.093128045837014e-18,-9.282396974136206e-17,1.7603611834830927e-17,-2.4972573998452747e-16,2.498001805406602e-16,-0.0015589542468704052,0.007778576878336316,0.07935619607550352,0.11641388608220865,-0.02660150372659745,0.10417886013313173,-0.12122244021661803,0.09882058540558834,0.04653926909983989,-0.017564484827839254,-0.028352302684895834,0.05711993130785182,0.0946042980764925,-0.02882065536546382,-0.020120637583223123,-0.07715603658053034,0.051900748191220904,0.09675201360500303,0.060552339363159194,-0.030874371310236938,0.04573638653907492,-0.05254728574924967,-0.11838844887292722
1.1408967803739448e-17,-5.395627907970461e-17,-2.0423341206667747e-17,-5.864036282504741e-17,-1.0470515028025017e-16,-3.058505909418623e-15,7.112366251504909e-16,0.12199381233512963,-0.11151300305820315,-0.010449279187947105,0.13915679881246867,0.05355096776976088,0.158722955396522,-0.09453068351846633,0.08062331937126406,0.07906171364340035,-0.01195503066818886,0.05205904343401925,-0.0720241485765039,0.08867266694710864,0.0010082547874769201,0.005590978139457418,-0.089339453600544,-0.030161602511155437,0.04804523692692703,0.05477705099861091,-0.010599274954394984,0.04212419106722039,-0.031463503533465734,-0.10236390188639133
-3.3461270017022372e-18,-5.889672990619523e-17,-8.997313779861548e-17,-3.228654097944002e-17,-9.2094119424843e-17,-3.1444019379008447e-15,4.85722573273506e-16,0.120637843215168,-0.1181573976336632,0.020469415435578852,0.15329407291469582,-0.01902668823362936,0.16876110633163013,-0.037016130257170585,-0.01582765467319973,-0.01788701912731922,0.023441065982167192,0.06078130453692749,0.026535717384736944,0.07808672922066556,0.06751624375821193,0.014828813683701524,-0.09526255623072273,0.08000495017193616,0.037160973706046665,0.05829737844822389,0.051308410512960846,0.07409124092556288,-0.003304698080911501,-0.00048137933657893485
-3.8079399544989784e-20,-6.532972822304453e-17,-7.930767001132126e-18,2.5626269346298245e-17,-2.115497516588975e-16,-1.800896123274142e-15,1.5681900222830336e-15,0.0848555805221503,0.004276291461225171,-0.022660168545125207,0.03464567973459083,-0.006104353507112341,0.07740155977150844,0.05256049474303265,-0.0510178611030975,0.014299742674606705,-0.013082774696149154,-0.01806031277784014,-0.03493726910103935,0.055971746341787997,-0.004679227395037259,-0.017285147317282697,-0.029312496523009886,0.039627316413210434,-0.012533997225911484,-0.0015284761363661514,0.014612811509459651,0.0035748610691425944,-0.03788460142283746,-0.022643972698344752
5.5032286748636954e-18,-4.4946205151759836e-17,-4.2320160834679615e-17,1.4165471162598834e-17,-1.0353823882717315e-16,-5.900321604531184e-16,-6.522560269672795e-16,0.015598077477851037,-0.07789052325319347,-0.07920132523928297,0.08647828012885664,0.06210193214468728,0.03052723611693484,-0.10085510833761781,0.07734329609726953,-0.03788678358572025,-0.010533720465536392,-0.05695031282976816,-0.033125102661778635,0.05530030997841453,0.03092855089462405,-0.050104754168228946,-0.11320556094189696,0.02233318656229504,0.04195138442034096,0.1250430054203137,0.022292971144329952,0.012446029178392125,-0.031443343982034765,-0.0925404404930736
4.663106685092836e-18,-2.882058527633396e-17,-6.968987146506449e-17,-2.603745241377617e-17,-2.5465763610989343e-17,-2.0728234670376606e-16,-2.2898349882893854e-16,0.005291004865574083,-0.04209439685817056,-0.05155984819859634,0.03474793080989545,0.03780486527857235,0.002908866082506789,0.018336508141198058,0.10504615354015914,0.027534509035091432,0.0194262005330267,0.021904752711008422,-0.02007886012818438,-0.02575317777352048,0.0037920005163551576,-0.04598197046149599,-0.03136300477524179,-0.00848509437275321,0.02885446385486416,0.13679097721668515,0.029886808354730815,0.057893772847219846,-0.004067675324526058,-0.04375798113631275
-1.4584215075261864e-18,4.164759228847199e-18,-1.7795837746514508e-17,2.279727321751665e-17,-9.428710727321172e-17,-1.346864408783953e-15,8.153200337090993e-17,0.05025881478845236,-0.05968473135753083,-0.017000568536870195,0.08789762344364839,-0.0038618558820167513,0.09124017167530943,-0.0508800401290464,-0.008634569668650657,-0.007276574787635327,0.001794140469218314,0.02524579851795338,0.00685539533288113,0.01746630754126479,0.006359234763323232,-0.012181949099774285,-0.08707855995866305,0.051372871173732994,0.03187979022413954,0.04795857558486907,0.06458816793020386,0.061665962218246904,-0.011976425566530585,-0.04383845564761978
-1.1080806628685824e-17,-7.275603446759987e-17,6.176048332725097e-17,-3.070752584712678e-17,-4.526372275216091e-17,2.9439511474648407e-16,7.91033905045424e-16,-0.004982510227553247,0.0483020557544165,0.0068699500987748985,0.028699431849322,0.017820858508114705,-0.048710671607635085,-0.011821124337916817,0.052605787643678154,-0.029291243262231016,-0.040746372484028,-0.014316106325175472,-0.03859924432495167,-0.020920129814905482,0.014325696369503472,-0.051966184739204384,0.01351440338602525,0.02717712987066468,0.010868543192058322,0.08776326751805155,-0.05973452372873019,-0.053459752589449475,0.028204999058875056,-0.04639241585874925
1.1941777738954185e-17,-1.2483121740427777e-16,-5.038475255084647e-17,-3.584590339074968e-18,-2.708507468231563e-16,-3.654124864590261e-15,1.6514567491299204e-15,0.162229893219043,-0.07127563037980796,-0.03765983320082136,-0.009550215270833913,-0.09586812833050674,-0.06934751191293685,0.04746941514143049,-0.20506649457425014,-0.03971868379513161,0.13279924957322042,-0.08914755414176997,-0.03848885928899984,0.10808887018196975,-0.006978253132039135,-0.03010620807123138,-0.15976000436565715,-0.06197781134789297,-0.05718270878645445,0.033014836640018405,0.1060119493853852,-0.15471974567109778,-0.05741256419387431,0.03346256913627063
-2.0556364240141103e-17,5.1328185468313335e-17,1.1427411746144637e-16,-1.1742810293929244e-16,2.778590603361632e-16,1.8160614349539715e-15,-3.469446951953614e-15,-0.10239671544458365,-0.10957516982036462,0.013970354137706635,-0.028715884784247685,-0.0499356313196446,0.042442263119839924,-0.07902288613277114,-0.060940694417725844,0.20124487551071132,0.04092452296601735,-0.0427783362718673,0.004316252235289904,0.03242176602369571,-0.08291280625827821,0.022416140281011538,-0.04941389027052399,0.17763046691014808,-0.02331737076547079,0.09747455088826572,-0.06851017150498581,0.06824610173570922,0.04170043859658866,-0.005695066317249788
6.6790844861341264e-18,6.831385283254571e-17,-3.850986504046023e-17,4.841675665400396e-17,-2.161801237411224e-17,4.569033144777685e-16,-3.677613769070831e-16,-0.017066386685002995,-0.005130406195494477,-0.028593905570904285,-0.03175894505873501,0.018416042082035906,-0.012562691812778536,-0.05232755281652771,-0.07026003920731644,-0.09038898277787355,0.01868045978390374,0.019323643815559833,-0.007987274042561844,0.014376412348769648,-0.008876865852128428,-0.002456432608195328,0.0942558739923474,-0.0345520208952369,0.010180939186232201,-0.010426613594278007,-0.013409002910092066,-0.019323070502624277,0.02713471324775452,0.0014969841460384073
9.1065817622972e-18,5.384826514256687e-17,-4.9725224513468035e-18,2.4615332821510396e-17,-8.351396368283237e-17,-5.373403316674819e-16,2.7755575615628914e-16,0.025494674213728457,-0.010346276505590182,-0.025483605183279766,-0.017915586194878572,0.02654098789931432,-0.007261903535120862,-0.0860545052035546,-0.06215271046514878,-0.0895603191093555,-0.02647145796833688,-0.014998728604608748,-0.053943293227448584,0.026260198675267316,-0.02207793224501108,0.0189582269448709,0.10484871959128705,-0.041530208187252525,-0.04073354343326739,-0.01796658925228541,-0.02674706661294594,-0.03880154080433669,0.08523382892862037,-0.013518046181760196
-8.039591640057404e-19,2.9094757886059845e-17,2.878929112262074e-18,4.884774588771726e-17,2.7745811437543323e-17,-1.9326196031347188e-16,-7.28583859910259e-17,0.007423921985517682,-0.01032582603482246,0.024419912940369715,-0.004810190269677476,0.024986082481991946,-0.00011342972182849685,-0.006380022997104683,-0.02645170056667822,-0.06068695879989829,0.025581570406231206,0.020026563482759996,-0.04626928769745877,0.03193406027888109,-0.017396697078567655,0.010702647346762089,0.07095168514862962,0.004287672225878949,-0.027316001878229922,-0.010712811106897665,-0.03362732206444443,-0.02023260803222947,0.014973888697524428,0.028925914197924972
-1.6039672594041438e-17,-4.219488674856072e-17,-5.2133933065697964e-17,-6.047834044552258e-17,-1.6959856299967778e-16,-1.8190517084460577e-17,1.3253287356462806e-15,0.01898867162538954,0.07531908975666662,-0.049504951607875325,-0.0117053658248243,0.09655754228090538,0.07293191978511515,0.08755225842978047,-0.057827331835120246,-0.05206970076316986,-0.06348129086638678,0.06317288648321363,0.004424500887131369,0.09460057637287897,-0.039550211516950845,0.0783597729565778,0.01601407917881641,0.04925898982415519,-0.04758998533960956,0.0022375816092594005,-0.02693629351450903,0.016108800059646537,0.049085771926145355,-0.15669938964986893
-5.367580711484678e-18,-1.4477812948746786e-17,-6.00081683435356e-17,-5.139949626710258e-17,-1.0387851654439995e-16,1.3106683225267855e-17,9.905271047827569e-16,0.011761285608773204,0.05950874513995371,-0.009239600960505601,-0.0011660770657243543,0.0745086195440181,0.1186356133282903,0.05540704648471646,-0.05587411450240741,-0.07498747185968682,-0.03822333554520152,0.046398795642198704,0.013322009423190744,0.083707138964342,-0.014659634956812273,0.05160337725355611,-0.0005429083284104736,0.051610606719653375,-0.008225861343413531,-0.05152219720063495,0.0019100090108146405,0.05850780059016057,0.012153181926060148,-0.14045275474731236
-8.606491152234402e-18,-2.255027773191485e-17,-1.9578769897828e-17,-7.954826714622522e-17,-2.4436662156700953e-17,3.7626745872876905e-16,-1.2836953722228372e-16,-0.009544100614295345,0.005069617753215031,-0.04689701436139639,-0.024102667902832647,0.07134763525542236,0.11192393552392864,0.03416496527230072,-0.04837508266711391,-0.06105320864927034,-0.028186474477579365,0.0050350224118059774,0.0026736028596817513,0.07252257622609769,-0.019704517491534495,0.031136989218012296,-0.0010599215024421735,0.03716911951024446,-0.011731749507802206,-0.03304200077706142,0.009679483425048162,0.06755435761230984,0.027873709280551873,-0.11903415851082685
7.506254050354491e-18,-2.663800057798487e-18,-9.364862329682879e-17,1.267635181621413e-18,-1.8315222560786222e-16,1.1312636457660856e-15,2.310651670001107e-15,-0.015232949767634556,0.1796572543760871,-0.031837996649907184,-0.04225784570424278,0.07389321870100626,0.0942231437829272,0.022884871527428234,-0.05582892768194396,-0.04076275162393524,-0.032009146393745413,0.03909171590825535,-0.06992919170933741,-0.014085096141239905,-0.02674777044128391,-0.003282836309625458,-0.013029495035109924,-0.038929888714413004,-0.017211939848539064,-0.03180759953348441,0.04041799009545437,-0.026321453352227065,-0.014471668977769653,-0.07458993347544568
5.512927360994449e-19,4.1814339017615796e-17,2.649707230317811e-17,4.986355672573492e-17,-5.34762533102374e-17,3.206365331999727e-16,2.914335439641036e-16,-0.00941799226115267,0.031200662746010667,-0.016402979823625888,-0.04427426781507826,0.014908128766324741,-0.015159338725291063,-0.055687266344833584,-0.027984141404349606,-0.08868754316306723,0.0017345210114145023,-0.03919113050509587,-0.023164733056049762,0.0011084436905366458,-0.037926247552021106,0.012661429498463862,0.05350720804952134,-0.010205747934858709,-0.03786170094070191,-0.0023377636652725207,0.0028169295892212023,-0.06018772158211478,0.07270578565248532,-0.00920442256104064
2.7808311964255347e-20,6.374928439144127e-17,-2.6338124636674563e-18,2.456815468942362e-17,-5.148441624493182e-17,1.4565328416922817e-15,-1.6930901125533637e-15,-0.06663422492414141,-0.02699543287225995,-0.07627186824355274,0.030508305657648813,0.020248216217301176,-0.024760814525006652,-0.030114843919971365,-0.05547304681790187,-0.023699136397875745,-0.041474902722855034,-0.009183157604514328,0.009281277714780656,0.02287475748434431,-0.03190395200822355,0.00509814802193819,0.05653562257233411,-0.020370373606460414,0.05798915173744724,0.03509222753519106,-0.018558059220188636,0.021140860169010407,0.048585590396486904,0.02031318680045091
1.88674115927147e-18,2.753914760457834e-18,1.4823745217221266e-17,2.3662092945342356e-17,1.2687406994673368e-17,2.5758834375176785e-16,-4.163336342344337e-16,-0.013265393448667175,-0.011194265563364988,0.016040696438265705,-0.008397321472078674,-0.0037190540430528762,0.005051528849829767,-0.009761474296567483,-0.03329574935133005,0.008601756623421377,-0.007617785951738154,-0.0035002832252002554,0.0012614503149234809,0.03310560304948408,0.020828548347844176,0.01870224028535514,0.010119691307914565,0.0006489054597762974,-0.005795482967107059,0.02325498748004391,-0.03335084859123115,0.016414517954102543,-0.02193527092370234,0.03155665529553417
5.117437714053674e-18,1.5884907469362112e-17,1.2215926480622633e-17,3.057541004996747e-17,-2.8349450170607547e-18,-1.1357443390982419e-16,-1.5265566588595902e-16,0.0046553986146024235,-0.01542900028215786,0.007800072665562909,-0.0056444402412120466,-0.011098833542222667,0.00751935585941273,-0.002588664956131758,-0.037654881039183595,-0.008082006939324616,0.0033988185672968406,0.012702163648344035,-0.0062207742775992805,0.017865056280668652,0.009130040866587509,0.021593623571986072,0.018811267975368643,0.0008636896168207197,-0.012331898381033737,0.0032680130792159773,-0.029510867345839197,0.020185872223194585,-0.015536753704339143,0.027944205880031242
3.4852167027193756e-18,3.010730431104112e-17,1.9265661551732303e-17,2.3659401774059542e-17,1.3429644340294132e-17,1.4413435336173099e-16,-3.885780586188048e-16,-0.007934604589518725,-0.01708919410270594,0.013364674063484152,-0.010296401245889104,-0.004984023742961188,0.0018607270436380888,-0.008720120667527729,-0.03898095061380495,0.0037841972486670895,-0.005945175744527079,0.0004723147526101386,-0.002503591463317569,0.03256374501750612,0.022875489472026285,0.017328899224049694,0.009071016110717025,0.0015593971808638585,-0.00568057716211133,0.021350863072160643,-0.03143357738700537,0.017550268346551618,-0.019250089384773596,0.026486064415213888
6.461332744388022e-18,-2.270354099367941e-16,2.5476143608450385e-16,-9.378143743371777e-17,1.545873061704791e-16,2.391269658175894e-15,-1.9220736113823023e-15,-0.09618772472456183,-0.06508364468947095,-0.1489470673665292,-0.09366467312161282,-0.019744920770353475,0.042140133681795915,-0.1746627741675455,0.29306707318367803,0.05289768676166443,-0.06869273009459177,0.42716219246141846,-0.19092416986921595,0.03702316827332489,0.25553549731968406,-0.1408670172679855,-0.16893943448512316,0.11764239858753767,-0.04378221607507538,-0.022756155343858317,-0.007880464357912741,-0.029200809350505494,0.10005141983415017,-0.03871722202244174
4.492128087195336e-18,6.683632798432925e-17,2.4056444108252255e-17,1.3252276940088023e-16,-1.0822965067696042e-16,2.834651877293818e-15,-5.689893001203927e-16,-0.1129953999204922,0.1082203152259101,-0.09054883494187316,-0.02007799311864712,0.061825611409047826,0.004808187779273739,0.005094401294442925,-0.011376816597655772,0.024755847353086103,-0.044578647458104845,-0.05745146044966608,-0.010108758491555894,-0.05241211248713188,0.044877906657896025,-0.04096181070298445,-0.02004596441346485,0.02013946011993416,-0.05631863984653443,-0.00562804307661843,0.08085899015305999,0.009765471687591034,0.020834576594521082,0.027269109432684544
-3.68463240120618e-18,3.417222282670111e-17,-6.515158094559298e-17,1.1558881763541168e-16,-1.431587563661989e-16,1.848715319636134e-15,8.135853102331225e-16,-0.06403475785913104,0.13726012088350303,-0.06045152562669367,-0.06694089009778066,0.05970985453636863,0.05574436721008937,0.09074454324123452,-0.026585944165417003,0.022054093177318535,-0.05916903016202608,-0.060326886350372144,-0.0019325249763244227,-0.0244164533392305,0.06085008822218556,-0.09142008950177213,0.04900602048877844,0.0655406801353379,-0.03813839307074102,-0.0955476045406141,0.09823361109098847,0.015399755286151853,-0.0010643821936197509,0.06926969506579195
1.1486921901408577e-17,4.885207473435764e-17,-1.8625639089159434e-17,2.7850322513031713e-17,2.0528022298386673e-17,-2.761636353956152e-16,8.049116928532385e-16,0.017008869324385317,0.04255051549020426,0.10988392946656612,-0.05149673653415018,0.016066142653211848,-0.08726201598536137,-0.013255501240684364,-0.032453394940923676,0.026936686603829516,-0.01952631360025771,0.026255521636661783,-0.028075046482636506,0.02655502871450476,0.014953082319541145,-0.027569131676718244,-0.018498184682793184,0.014651062053217857,0.01821323663782045,0.031343012042336894,0.041457066177063205,0.02469219091403414,0.017101550540067473,-0.04559511380347663
-1.358718354996528e-17,3.890992391380091e-17,-3.648923327015862e-17,4.024945780051081e-17,2.9790649116970894e-17,4.7605585691012723e-17,2.671474153004283e-16,0.00048378159297534094,0.029292274231748586,0.0829379013627538,-0.03310299446721253,0.005644817153907439,-0.07049710982718468,-0.00081480721405355,-0.044541277230271833,0.02805114125642805,-0.02116684676708892,0.03772276006298725,-0.027866060907748666,0.028509030217304904,0.0035245182817648067,-0.011601427624620186,-0.01108661936837885,0.010451836354839913,0.017710286628013584,0.03443608033331415,0.01691279269032138,0.013510912873734455,0.007254360457473483,-0.010254283832521761
-1.2822246229750622e-17,2.966475826645097e-17,-8.646075956420845e-17,1.0436132538043609e-17,-7.168778147113484e-17,-5.694860216115874e-16,-2.2551405187698492e-17,0.016077680348429955,-0.0023060076563806158,0.025086703081098723,-0.009769587875639479,0.06408743852671415,0.02357431836461061,0.11193490066148373,-0.07338245458665998,0.016679075031357044,-0.10086489816292647,-0.017235529960744178,-0.020426801306119156,0.10568045946502266,0.05084852923561805,-0.02517256376990488,0.022984829715472496,0.017681531290865315,0.017444798052376448,0.06124206497241785,0.02176505258463908,-0.053327048630411024,-0.04907913562932573,0.029112012598859687
4.727076539879454e-19,1.4016548413556385e-16,1.124749932171086e-17,6.126594673792832e-17,2.3519749839102176e-17,1.388417030063023e-15,-4.206704429243757e-16,-0.06191093856124267,0.07328695119280433,0.06624425703556484,-0.030820942733216804,0.051126274663848795,0.0107621943893603,-0.030563285840830477,-0.06683863756279157,0.03297420396136174,-0.07105469842889131,-0.009129457918933706,-0.04198038393831295,0.00972922213109446,0.015265205402944269,0.05735428690246232,0.07395196915989156,-0.08032236810877422,0.020654170106798077,-0.049072502529557964,-0.004367824237292911,-0.009450404514463287,0.026101894051359164,0.07013397912651761
-1.0096331218741584e-17,1.1705584252588632e-17,-2.4808511790566625e-18,-2.183797869794539e-17,-4.130933754361306e-17,-3.0525555293850945e-17,-6.062858548538941e-16,-0.002119383928180386,-0.034320072956629255,-0.01657083550519221,0.013695114869680768,0.030208981787516794,-0.0298223758871514,-0.004294407102008619,-0.058182222867491126,-0.02169214039829173,-0.017429374547860796,0.034542016551954366,0.02063559528877729,0.04368278493225802,-0.02048923818053093,0.023583242440159524,0.012157580917987151,0.012290069796196536,0.012128270421621788,0.010981945577182314,-0.08023688459919943,-0.07213278659077056,0.022230833894759036,-0.02071882473908932
-1.3531368883266249e-17,4.365803472464996e-17,7.572192850580801e-17,8.261971438413343e-17,6.932374862853896e-17,1.6746680505231968e-15,-1.366962099069724e-15,-0.07432312824746562,0.027930028365747803,0.010340554697900134,-0.014235466805605425,0.02290104376522806,0.021757546454046196,0.04853920880697447,-0.08276762697928393,-0.004712655830354855,-0.08904281624514991,-0.031079630012343224,-0.13792056539041664,0.08736694138829836,0.043552710607512195,0.036807618469007056,0.10304650774363368,0.0065474435139074305,-0.030930092268174163,-0.053397835685827844,-0.036458311284005174,-0.01869587098781201,0.08452491253937094,-0.012639830140653672
-1.7577256124559627e-17,-3.366915506618092e-17,-9.932047093294718e-17,-7.527266354475214e-17,1.369737948941358e-16,-3.473986533917856e-16,-7.025630077706069e-16,0.0016559571288935972,-0.04236395730950987,0.023599134552509414,-0.06237983930646097,0.07491463683795953,-0.019378982308126635,0.1499947014426488,0.021327736428396006,0.06172891501881228,-0.06722288687978642,-0.06608669230338372,-0.0817148280688959,0.04785807280750033,0.16608131566424847,-0.024278409148458715,0.09627551685287529,-0.026363086898428093,-0.0033179179867306677,0.03856109257563312,0.0018297525832093296,-0.023796257502879392,-0.04318958250436181,-0.01669295656639315
-1.0711036349478957e-17,1.4712213445302437e-17,1.3469378168970559e-18,5.594998673659606e-17,-2.964921338676504e-18,3.68706914899891e-16,-6.171278765787491e-16,-0.024812319993136333,0.016077194305159935,-0.003698699753526412,0.03560022038310566,0.025652463087602783,0.035835120867114476,0.10893235356800376,-0.022561578244463948,0.05492363308875741,-0.16033384735030942,-0.08032353989236217,-0.05960995529025131,0.01987866471114675,0.07298932889600339,0.0499741192685388,0.040438598127998354,-0.003500322569395658,-0.037232792375154845,-0.03437536173635428,0.003891260022480779,-0.07163735434960133,0.0688882660168721,0.03705416620334784
3.716522139321219e-18,6.19106470519187e-17,-1.2236430395871764e-17,1.1666388384360167e-16,9.182114302438365e-18,1.4036128051321017e-15,-1.2472661792273243e-15,-0.06818507764508389,0.012537873718213176,-0.024553318331606407,-0.029023871430455955,0.007078988761004876,0.0796066692039011,0.05656049317912066,-0.08050558506885955,-0.000461649475058104,-0.10106596843479683,-0.07181874246306512,0.010582421331965563,-0.005969896294136978,0.05221635044233513,0.0012644658955351918,0.01284504962761024,0.07965405587297196,0.016519396723771562,-0.024740197816699314,0.026938756780733167,-0.053467840509547046,-0.03509025223977907,0.01804600946115526
2.5257472925105625e-17,-1.5319317870626604e-16,3.0301342693753107e-16,1.801088968813228e-16,-6.581402518899361e-17,3.5125798388859967e-15,-1.304512053934559e-15,-0.1385084189990526,0.10257472301582045,-0.1307286798347547,0.0023646433669939305,-0.14007056240955618,-0.16882309376504148,0.05602605436378343,0.02040298685086948,0.021096434037653464,-0.12163654632193062,-0.022390855685804446,-0.08965789000827495,0.013363822810774067,-0.005811954721715867,-0.05971551112204961,-0.002048461569319754,0.06983744899970212,-0.032758470895652154,-0.07690586913434909,0.05558226528741639,0.09663296941861807,-0.04537836901734132,0.04868095393530237
-5.966756706906798e-18,8.517644090777589e-17,3.959721253324428e-17,5.6703180673781e-17,5.785935799372135e-17,2.8453038163731363e-15,-3.039235529911366e-15,-0.13307900948114307,-0.019078629353920795,-0.04684960267432953,0.0803474403958179,0.1589579276271511,0.06941307202932735,0.10939188736009328,-0.09362045796533834,0.01617015590721109,-0.023149856879209445,0.02807965264380088,-0.09669235237561367,0.13771000976597395,0.11600784456455569,-0.08075352207452652,0.09332839690895835,-0.07944412599982062,0.022902105300863423,0.007836978586391671,-0.1251195220936363,-0.0877966679884614,-0.0033083356297562393,0.11642897733834137
-1.0539643715585375e-17,1.0026724398488813e-16,2.4277597836310467e-17,-3.0060422068642512e-18,1.8118413927243786e-16,6.682735123860363e-16,-1.3461454173580023e-15,-0.04123736918927977,-0.01043283421046458,0.10580825272071943,0.04866338241500898,0.023139372661323043,0.06135488310424621,0.1063689466994956,-0.05182951230210933,0.03625435115930711,-0.04164872506099329,0.0027825358934580515,-0.09772780954902455,0.055678560285250145,0.041554217196165734,-0.018368336228558695,0.11881630484799806,-0.05303573428099391,-0.0001483386601743866,0.10892023657671146,-0.05897309876446823,-0.005257588815035827,0.017675391854495105,0.05976389861674621
1.177411450823197e-17,4.970895733825377e-17,-3.7538902379187526e-17,6.469257714223908e-17,-2.273489229460995e-16,-2.3395057978683586e-16,7.840950111415168e-16,0.014362478181924015,0.03544857382771017,-0.020265146865715296,-0.0029360904985290554,0.08416854103718834,0.032209646212121607,0.03585887807271743,-0.037650821999213255,0.04926619778720327,-0.08692531559578212,-0.019527382246500854,-0.012542180535501993,0.026269907058676836,0.038516967151297786,-0.0838637534673815,0.037284650415985006,0.010128617420257332,0.07382633697225986,-0.006794530780393542,-0.06712719961202017,-0.011411475371410455,0.002716142075753407,0.06930304992020891
-1.4479225191792036e-17,1.1310503839983972e-16,1.293878795770637e-16,1.2301872912724229e-17,4.0951958801094873e-16,1.919094172108174e-15,-4.052314039881821e-15,-0.1145778721282536,-0.09575312071983816,0.1395428161761504,-0.00037527442371923546,0.022908009905308113,0.06487343205314547,0.11032692832459723,-0.09043819085098036,0.16941130400156273,-0.1398052576621667,0.023460203317826646,-0.025191564313034126,-0.030986014104681135,-0.007521382507821374,-0.05972675252400622,-0.055987804016731334,-0.06406557776562145,0.03094978252532206,-0.021621298539795077,-0.03308827624509161,-0.045425923078530564,0.03237602255455198,0.014114590934646
7.298684615615653e-18,6.835192349153982e-17,5.365731212179338e-18,-1.877119131112778e-17,4.159828350022333e-17,-5.740258763562928e-17,-5.828670879282072e-16,-0.000914438427091861,-0.05356020321137632,-0.0204489778581428,-0.011111251144802615,-0.03801426274047062,-0.022436771646046634,-0.015479711486103538,0.004633632645184269,0.047643291815640754,0.0206712590437272,0.10646317914272295,-0.03153428570453353,-0.05725012748157389,-0.15380119407566878,0.0023495528057905727,0.06883406402979295,-0.12816947370421639,-0.03681042877365,0.11346151727471887,-0.015437357269995955,0.06816173336681138,0.04117596637466146,0.0016494878303597792
5.392872459430504e-18,7.963262727636066e-17,1.169210930086907e-17,-1.6523778652075558e-17,1.0527164628449085e-16,-2.216650423347234e-16,-3.885780586188048e-16,0.005822307473764795,-0.048000801516119976,0.017720945775836355,-0.022036275535394344,-0.0227892621153088,-0.043062678831204106,-0.02362624574754219,0.004617117146539493,0.05517717862272658,0.024427884194770898,0.10831589011724699,-0.046145638105635337,-0.06447372712610369,-0.13277442307183962,0.005439348754625181,0.050670637151831684,-0.11652279181842484,-0.05005235296789069,0.10461104763123434,0.009393225670635925,0.07945764411262199,0.047574763080687726,-0.027098626121444494
-1.1577138120596754e-19,6.069713568561177e-17,-9.0076120396493e-18,-3.7260024123551593e-17,6.733525419778659e-17,-1.9320676850952027e-16,-1.1293049828609014e-15,0.000499619420853758,-0.07498539547198149,0.003926002646454435,-0.0011681148003948323,-0.05659506807584177,-0.05530951187541114,-0.05459897253096215,-0.04320854518954405,0.039776251956801865,-0.004048523872652864,0.024147227181736942,0.016243939204171522,0.031417757428077335,-0.03550798024373103,0.03789088076880867,0.03068313788141693,-0.00850441876645066,-0.01889593284538762,0.03461911104690258,-0.016575877761951352,-0.03699351304842731,0.01049845886576149,-0.010115563626421754
-8.677806079332502e-19,7.059508542762789e-17,1.254223902166794e-17,-3.494061510936257e-17,7.828968491184777e-17,2.0165441859473484e-16,-1.4641066137244252e-15,-0.017532610324653978,-0.07476657982221109,-0.00038124456507175906,0.002829137982136988,-0.06807864256207549,-0.06869186982720835,-0.06569251880864745,-0.05191376995165394,0.04830939306796562,-0.012860503421653412,0.027825778402411825,0.028061534497867604,0.04543946463500878,-0.04168563284933037,0.05433129692955893,0.030338910259393833,-0.007155495885711648,-0.02066688921584221,0.04456811282450459,-0.017990016307759458,-0.03698649589515093,0.024958173452539992,-0.005368337334223264
9.576271763103396e-18,1.4899222436104708e-17,-2.1547491009795797e-17,3.7059578922487956e-17,-5.592984660614001e-17,2.5109598422499663e-17,3.2612801348363973e-16,0.0024269416146149533,0.012372312621896704,-0.013042201391124403,-0.026211563636963153,-0.014071593963355906,0.02667731219442593,0.01043054106901846,-0.008630367160227932,-0.020720510729662172,-0.0014885899193749041,0.035878937435986795,0.01407540878365558,-0.005544208594085099,-0.01740072946755718,-0.04377125193005172,-0.01070938383997123,0.025729078460894447,0.03170953440641911,-0.02767064480111902,0.006500074690613714,0.0285292192548955,-0.030396070667921087,-0.01954044336980976
3.0095502142168115e-18,3.907109829988161e-17,-4.278974692691411e-17,3.141076098950724e-17,-8.459833974875085e-17,-1.5800842625000657e-16,7.658804146437603e-16,0.012760505360166055,0.032461836518401704,-0.0018745104789212625,-0.013375026954069199,0.009534918330710308,0.02787384851986222,0.015706143087002158,-0.01174627945421894,-0.017975680227067588,-0.005662864901947415,0.017651111710255078,-0.00021361770822402024,0.018108273208125154,-0.007255467948287244,-0.052361739468435094,-0.004659488129876592,0.018042596624213328,0.028919351722290612,-0.019309259735672102,-0.001329641973846878,0.026760732376904718,-0.01615142719053129,0.0032638759749094243
-2.281064324143319e-18,1.2379414122617747e-17,-3.818956595083643e-17,5.192802455897293e-17,-7.479681077701605e-17,-3.203221358814467e-17,7.554720737878995e-16,0.007734222291547082,0.037397890943933115,-0.00454499794446199,-0.028203312258913947,0.007578857194229403,0.021774741134431362,0.021919712183268557,-0.009740901430835131,-0.022913907026587663,-0.005909572395229755,0.026608579294682185,0.0004108843886156483,0.008314297482252151,-0.008666778855478518,-0.048759810635608775,-0.008291464559121338,0.02621227467496524,0.021110133592145374,-0.02467454574805874,0.012720663254923145,0.03444844549905979,-0.026418443120541056,-0.015866468673467114
1.6402033944840083e-17,2.117535312698833e-17,-5.534417018792986e-17,-1.1106484331178405e-18,-4.0262479572889693e-17,-5.150414000713964e-16,2.2898349882893854e-16,0.02090634448415707,-0.017301347444241343,-0.023824518341735042,0.030360564772272197,-0.07460520685862776,-0.014826874611341898,-0.04044364925792003,0.00984286680686417,-0.024991942158591858,-0.01836760057886995,0.07390455384515102,0.028195154914533886,-0.025393361735325425,0.011011976421158339,-0.011218399745918716,0.05262665966434137,0.02758445585976173,-0.002202303646262802,-0.01526179973192885,0.007913057067219197,-0.050912368589763064,-0.024044490378193287,0.02937278456733344
1.119013595121252e-17,-5.138497496909602e-18,-5.22034070577882e-17,-1.3506476719639061e-17,-6.610454394535211e-17,-1.09328140304256e-15,4.423544863740858e-16,0.0420079522685474,-0.029948753651967874,-0.029889284607749395,0.023839987833136886,-0.0433016435145174,0.009564386082916673,-0.02317440804398223,0.0048898206793840885,-0.01587618216199954,-0.0126693810885449,0.038028569312137175,0.03466089848033395,0.0020941569019258042,-0.008417688140376195,-0.010833878668964255,0.03465079869504696,-0.007281560381865395,-0.006429683831232261,6.055591452236024e-05,0.019356979962918394,-0.009994659065647971,-0.008529334118016586,0.040523987151318226
1.2173187778220493e-17,-3.2357569529951286e-18,-5.80674845693655e-17,-1.0852376856109463e-17,-9.417732238014421e-17,-1.5123953179680861e-15,1.1032841307212493e-15,0.06598294686822656,-0.01118063942433496,0.00851913465639622,0.021441470679854895,-0.036373632492742405,0.02696989763163307,-0.038507431575413364,0.003815404734179812,-0.00804322771300218,0.008856109079151906,0.04299195044517354,0.006499058317548519,-0.013525106942811133,0.032724600375070245,0.017275985649592478,0.002710506636833669,0.002075421552572101,-0.026659761173771005,-0.006841213734514587,0.04465881970933353,-0.00781460690800438,-0.009644201089617518,0.03818323525330295
1.0014099327501122e-17,7.912103875093925e-18,-2.2811047119026532e-17,9.690063392872787e-18,-3.905199043165447e-17,-8.97108760426965e-16,5.898059818321144e-16,0.04242540534174065,-0.010448420808347014,-0.008893745397228292,0.00831144185478627,-0.02944327022983088,0.024495248187657696,0.015805701398758632,-0.0336766575455099,-0.043680629837684413,0.0314308049711709,0.04939169917688348,-0.017372320724145657,-0.026231014834984266,-0.032106306980652935,0.034387797200429324,0.048032026877277104,-0.0012234241113756492,-0.03228585980619927,-0.05098053702911588,-0.02374272671563967,0.028092679313082507,-0.004396738740084307,0.03231863206714917
-1.4361461143883873e-17,-5.9827248089712966e-18,-2.8842474394516704e-17,-3.2089666034037956e-18,-7.521882408050729e-17,-8.96263935185622e-16,8.049116928532385e-16,0.037022009652643205,0.015192911839909702,0.028131282410132404,-0.03477687181182642,0.023862335895250473,0.039362471210946916,0.1038578666045715,0.008066685265216153,0.00335670324625453,-0.04592207981572229,-0.01487739601781617,-0.03919970547687836,0.07698922577326381,0.052776897302372186,0.016189643577694146,0.011710755567356722,0.038537351721587204,0.008393267796547142,-0.00383771525430907,-0.08063472172816784,-0.01409447642649896,-0.041015605771486024,0.03779134520220893
-4.148344712025659e-17,1.3104537489516085e-16,3.0598147748613634e-16,-1.3487372519359414e-17,8.932033484549796e-16,3.887113528655586e-15,-7.327471962526033e-15,-0.21817781191124969,-0.16791197651723858,0.2568936808816003,-0.07559217521904421,0.03665640268735123,-0.03622257199998827,0.16226121583168016,-0.03856792176690372,0.15868513991376273,-0.05767217619719573,0.08717997355050733,0.06756453993743833,-0.028657456298671627,-0.05705333873780633,-0.08140528993030911,-0.19776991350529582,0.010000358754458968,0.08298611632690964,-0.014504295661753224,0.027058888824616864,-0.14710596282597638,0.03856898223560545,-0.01680536280806112
6.5327430293411095e-18,-4.644773323332819e-17,9.245269116575201e-17,-2.1864992606921658e-16,3.076359016730192e-16,1.6663646014042407e-15,-2.831068712794149e-15,-0.07578054028974628,-0.10372948750693699,-0.0653864157043069,-0.048651050182025285,-0.025680975561502412,0.04438348835740402,0.06253477662827377,0.02634912569872675,0.041422992053847266,-0.045057734231310397,0.0002246849964728933,0.05509581101492582,-0.044297354038973016,0.029067287418907153,-0.07040199935431506,-0.019559099792573385,-0.0137777871264955,0.004117839390516417,0.016803098665472235,0.01804593926623219,-0.011958557175258825,0.04894210624391611,-0.04568194152353627
-1.2164991378939231e-17,-3.287856738883868e-17,9.949331361926263e-17,-1.2718803092351072e-16,2.5895710147799254e-16,1.610612785892024e-15,-1.7763568394002505e-15,-0.0712229337952895,-0.016660150253768435,0.034297819428940245,-0.05151601639275152,0.0615282138004331,-0.0024928550503880475,0.10905706714978992,0.02799429461955259,0.04843671067995954,-0.05350658434968999,0.1102092398113669,0.07307516751524339,-0.012946540511822256,0.0046307975061084476,-0.019776916909606288,-0.08308389485346471,0.005789530397206384,0.02228837648311339,-0.030462858372897465,0.0073313302234162304,-0.0653580171950808,0.09637192774945631,-0.06978293239970079
3.1075613743495516e-18,1.2238466720287003e-18,2.275392248207502e-18,-3.3435973955035875e-17,3.024205067152636e-17,-4.2410317675984233e-16,2.0816681711721685e-16,0.016417023600699306,-0.014612683142868657,0.03343424410079582,-0.025511671199865638,-0.022299734396307867,0.00332596679232936,-0.015151449630622994,-0.011168066638420364,0.03550803922169428,0.006794203027263864,-0.004291743287326224,0.01787840265452594,0.02888764032636581,0.00853877906305253,-0.018442027584347088,0.04828503060755568,0.02014814955831544,0.015204260235135153,0.017114542766694947,-0.004775459841282794,0.05202458348277088,-0.006762736766731638,-0.051509337224638345
-1.714830520959637e-19,1.0927449448282606e-16,2.3910171193824663e-17,1.1381024406536154e-16,-1.8943613382402378e-16,1.9046064761203464e-15,-1.1934897514720433e-15,-0.08464282134701331,0.024078735665313617,-0.06817663576219463,0.10521452684565878,0.1237861049499868,0.018062543115565634,-0.16381351595742674,0.005588233842842269,-0.1280208612922998,-0.0686088724810763,-0.016760476810732308,0.050110555701988475,-0.07608092392837157,-0.015394944398313286,0.041872082676798365,-0.10046722435613603,0.020979449097198812,0.024345669401260497,0.11229390755411026,-0.11055695796703809,0.023611094808282017,-0.03381692157098169,0.022177907289129828
-8.518380133252575e-19,1.6905218886924157e-17,-1.9939630315229408e-17,5.99988213000284e-18,-9.819817361406182e-17,6.209908445917707e-16,-2.5413698923060224e-16,-0.028088891338707657,0.012142068993084308,-0.0561475890849735,0.011153012844350295,0.018220557323600027,-0.01861863030203105,-0.05726806097595306,0.021045602423291683,-0.03413369055754448,-0.05697777946610041,-0.02264507424618781,0.046399692661235295,-0.04145207798399553,0.01925397810973632,0.054899513974855714,-0.02829838152536479,-0.01369076439908033,-0.0010586724275808976,0.0601414341562239,-0.09670276535155875,-0.04394135973761494,-0.005116133752659786,0.02152629169275614
3.3949055264958945e-18,-5.8708580766482545e-18,4.6117096064039825e-17,2.864673552949471e-17,-4.600024088014343e-17,1.991319600079447e-16,-7.320533068622126e-16,-0.012438558296197066,-0.03964186682637993,-0.03505632698427786,0.07049662400454487,0.041688499900234835,-0.001896114556136488,-0.039240467595570504,-0.011583173270380574,-0.04210416947429645,-0.043559497555711285,0.014280674740348812,0.0500314828618366,-0.019103931296439336,-0.046794056746115954,-0.009388722012080812,-0.020714647090823362,0.00802280928793717,0.012036718287858267,0.05809478416819931,-0.003385242185114896,0.05506392907845442,-0.0023512063367714447,0.003293596886170954
6.168010863218027e-18,1.4620697323499326e-17,2.2386842262640428e-17,3.223864425544137e-17,3.0183821580206433e-19,6.380522518631426e-16,-1.205632815803881e-15,-0.0323537989598207,-0.046124726448220535,-0.04320046759253424,0.06940132489806787,0.010557771974392366,-0.025317438679551683,-0.045483614769537675,-0.012918260587477075,-0.048280118069077435,-0.03329692154402408,0.044439474176331636,0.04749736112624893,-0.0033179607092851024,-0.04594632377373018,-0.009704157537529194,0.004777704276401291,0.012302069678217316,0.01640778547696714,0.04580974896592886,0.0005784569191348355,0.021838024553959622,-0.002054193361497495,-0.0007742458733532515
-3.229990284729238e-18,-1.1352675434213641e-17,3.6784301794356234e-17,5.657383590923068e-17,-1.642500742594082e-16,-4.934544259878251e-16,7.771561172376096e-16,0.025439716583222055,0.012703637315478356,-0.031692340070568994,0.04248790855119187,0.01713008555962722,0.0233865886301879,-0.06799727153712713,0.02614196712912122,-0.04925256984310046,-0.038082001892649764,-0.003843382975505521,0.028455547710862054,-0.05952119106402998,-0.045905904759822064,0.016840567383587877,-0.04597339155242467,-0.02070569875748147,0.009545495808058059,0.017474966774460143,-0.016231612621151404,0.05028688906859467,0.012186950134518143,-0.004960981635972059
3.0528630828657887e-18,5.531088482215081e-17,-1.5358016708954292e-18,5.960313275575112e-17,-7.946202037259299e-17,6.323852955124023e-16,-2.498001805406602e-16,-0.029910726449368267,0.020357662603903977,-0.010117043433501591,0.01933985054975461,0.029630914646963134,0.002250113962295574,-0.03554792940743973,0.006258194534225914,-0.0857459364727702,-0.047922855658435876,0.018973015427573375,0.03220145011985768,-0.03516941996776928,-0.0036684687827344188,0.003104133593949605,-0.05503270063739917,0.008144412163482174,0.030428870820051662,0.025560310122879546,-0.03679904497454514,-0.023190303313854306,-0.031835258674589154,0.03352878028947602
-4.181486863661294e-18,-2.5252561051431555e-17,1.0964301161845607e-16,9.319517562608207e-17,-1.940500472116289e-16,4.942486320836777e-16,1.3704315460216776e-16,-0.012488902355977206,0.016049793660597885,-0.09697785024206586,0.04485892789008835,0.06931130142912895,0.037325399405258385,-0.0908910147703906,0.013720510280127007,-0.052200251993573796,-0.03622377386352591,-0.031286695581644784,0.04220881021376756,-0.05160010733637325,-0.019400407034912845,0.03911677227444728,-0.03078726645879156,0.018306903797649297,0.04524098797166333,0.014580328717440685,-0.054584047267434765,0.015333557937154794,-0.005209404971581954,-0.006685106529300405
